tree
version=v4
num_class=3
num_tree_per_iteration=3
label_index=0
max_feature_idx=17
objective=multiclass num_class:3
feature_names=price_range body_ratio sma_20 sma_50 sma_100 ema_20 ema_50 ema_100 slope_20 slope_50 slope_100 volume_sma_15 volume_ratio momentum_15 momentum_30 roc_15 roc_30 atr_20
feature_infos=[-0.37809696976443569:13.643885546366269] [-1.2610267568132418:1.5592258014868268] [-6.8760915848655326:1.9153938189965816] [-6.738188238606531:1.6352831115858759] [-6.227670876991267:1.2729221659395069] [-3.5921025483968978:2.8069615020612995] [-3.7013851114173786:1.958971767906196] [-3.1142931287062146:1.8833305339332973] [-5.6863056853457925:2.8288266972051912] [-4.9347357364934954:1.1940241138421686] [-3.325044671460704:1.1716296313408454] [-0.32716543992890079:12.16161088836839] [-0.41498837184908899:4.9687543116495663] [-6.4161137340574861:6.2855083176590796] [-4.8899856980832874:5.0802513339761584] [-4.2396869960758714:6.509315904902393] [-3.4359614346053391:5.1986904730728503] [-0.89267614300254305:2.8996484499054844]
tree_sizes=3020 2807 2294 3014 2914 2587 3236 2923 2385 2258 2911 2277 3130 2366 2269 2276 2156 2806 2811 2896 2700 2160 2902 2276 1949 2918 2274 2705 1946 2492 2277 2895 2794 2376 2694 2592 2926 2586 2696 2928 2475 2795 1963 2796 2599 3239 2270 2051 3028 2699 1950 3139 2586 2382 2910 2696 1739

Tree=0
num_leaves=28
num_cat=0
split_feature=13 9 12 8 11 14 7 0 5 11 9 11 2 16 11 17 13 9 12 12 17 17 13 13 15 4 3
split_gain=99.657 26.9003 31.6875 23.8955 15.6934 15.5271 16.6516 15.2554 23.3772 15.8569 16.3646 10.7924 12.2697 10.3862 9.44116 8.07229 7.84181 6.85833 5.93146 4.16551 7.0999 3.54231 2.5221 2.51298 0.322395 0.0699748 7.10543e-15
threshold=0.03648261409965791 -0.10927056465823634 -0.34008101375589678 0.57971753580051599 -0.266268710941925 0.043164621836106205 0.91663129224051321 0.14511183185349782 -0.55482025877042851 -0.32617326048948253 0.056479863164967357 -0.32673313746679278 0.028498734509084755 -0.08803858997218364 0.50968518377471428 -0.55981963283102243 -0.98785578021337461 0.075173186519825505 -0.39272275123348094 0.14600450429530668 0.74642237178155579 0.84554173930991527 -0.017797573392269245 -0.019844641631172149 -0.046465001704971538 -0.10193493279238784 0.73919020090938792
decision_type=2 2 2 2 2 2 2 2 2 2 2 2 2 2 2 2 2 2 2 2 2 2 2 2 2 2 2
left_child=1 4 11 7 23 6 14 8 -2 10 -10 12 18 21 -4 25 -17 -11 -3 20 -9 -6 -8 -1 26 -13 -25
right_child=3 2 5 -5 13 -7 22 19 9 17 -12 15 -14 -15 -16 16 -18 -19 -20 -21 -22 -23 -24 24 -26 -27 -28
leaf_value=-1.1273296872909282 -1.1347589543200016 -1.1006316289346691 -1.1130667420296576 -1.0293855871823427 -1.107608960330299 -1.0578048065900303 -1.0488874386357461 -1.0258953320041082 -1.0783293388377637 -1.0806893190935447 -1.0258848198079593 -1.144124327463927 -1.0701382941725994 -1.0770478871975002 -1.0780484828675041 -1.145168834522617 -1.1043979123789758 -1.113566905656564 -1.1331101733686635 -1.0781179315638534 -1.0645292781416773 -1.1370835801620591 -1.0766835227557017 -1.1486123184704324 -1.1399876607085497 -1.1486123184704324 -1.1486123184704324
leaf_weight=22.266192555427551 21.379426270723343 29.629617780447006 81.656697392463684 29.312959402799606 20.225063860416412 34.572866231203079 14.849703401327131 18.342570930719376 47.197517305612564 33.139658868312836 21.719605028629303 13.198643982410429 19.625860869884491 18.20986595749855 25.183748155832291 17.20216977596283 37.512458503246307 30.424441695213318 26.747767210006714 19.326561391353607 33.815368384122849 20.552256077528 18.117621570825577 27.361802011728287 13.736288934946058 25.397744983434677 23.945743024349213
leaf_count=65 61 89 239 80 64 92 41 48 142 91 59 41 60 50 67 53 110 96 87 51 92 56 60 105 50 91 88
internal_value=-1.09722 -1.11041 -1.10277 -1.07185 -1.12837 -1.08781 -1.09523 -1.07738 -1.08624 -1.07841 -1.0618 -1.11817 -1.10419 -1.10844 -1.10481 -1.12957 -1.11722 -1.09643 -1.11604 -1.05829 -1.05094 -1.12246 -1.06416 -1.14183 -1.14679 -1.14708 -1.14861
internal_weight=744.65 489.992 343.695 254.658 146.297 174.381 139.808 225.345 153.861 132.481 68.9171 169.314 76.0032 58.9872 106.84 93.311 54.7146 63.5641 56.3774 71.4845 52.1579 40.7773 32.9673 87.31 65.0438 38.5964 51.3075
internal_count=2228 1508 1030 720 478 499 407 640 449 388 201 531 236 170 306 295 163 187 176 191 140 120 101 308 243 132 193
is_linear=0
shrinkage=1


Tree=1
num_leaves=26
num_cat=0
split_feature=0 4 5 17 3 17 5 7 4 6 9 17 3 7 9 6 17 14 4 11 7 16 8 14 10
split_gain=125.373 77.9626 39.3341 30.8581 24.183 38.4416 23.9644 29.1244 20.9929 30.106 15.3034 12.3276 11.7006 11.1546 4.43982 3.79089 2.5729 5.58848 4.67767 1.68055 2.68033 1.75399 0.925269 1.09817 0.905874
threshold=-0.14040191611048228 0.40898447955785794 -0.6611543346787816 -0.67325917514343747 -0.32288486898868435 -0.80686491625216405 0.27808029185072164 1.0642029727340476 0.96880567500068204 1.3352121246183908 -0.18569310518707996 -0.82075667141379116 -0.39089500501247243 -0.71933390561339949 0.3011423223629493 -0.18614946266783086 0.73396590215647961 -0.0064529422916894492 -0.32708010596218401 0.50968518377471428 -0.81725683233056412 -0.07146369022416664 0.00081974087009940009 0.18075102372400556 -0.12641042684962947
decision_type=2 2 2 2 2 2 2 2 2 2 2 2 2 2 2 2 2 2 2 2 2 2 2 2 2
left_child=1 2 -1 4 11 -6 -3 14 9 -9 -10 -4 13 -5 -8 -14 17 18 -2 24 -21 -22 -19 -24 -18
right_child=16 6 3 12 5 -7 7 8 10 -11 -12 -13 15 -15 -16 -17 19 22 -20 20 21 -23 23 -25 -26
leaf_value=-1.0246620989875237 -1.0892074821524302 -1.0021070462050043 -1.1405607972654885 -1.131516832936778 -1.0019178439080116 -1.0876207451876703 -1.1202159997358108 -1.0019404468287543 -1.0401027849113404 -1.0885367157984411 -1.0923938915685436 -1.0952080267158206 -1.1420299004111789 -1.0841337999537146 -1.0842859901751418 -1.1215418475207408 -1.1315425413801832 -1.1413512192900166 -1.1212939190564899 -1.1385893142205394 -1.1281832272515004 -1.1076245301038175 -1.1203698024644209 -1.1356433119784226 -1.145234814650822
leaf_weight=17.084336370229721 17.20892658829689 18.192274793982506 18.138494849205017 19.221145257353783 17.919923096895218 48.487827971577644 18.000469326972961 35.596443131566048 23.889545634388924 13.978071287274359 33.770868003368378 86.141408443450928 38.826853588223457 35.107036679983139 16.459883973002434 53.948831379413605 19.250093892216682 20.113007932901382 33.412010923027992 36.426790475845337 26.807743325829506 16.924536570906639 21.97674535214901 25.336946681141853 32.430020973086357
leaf_count=65 53 74 46 50 73 151 50 145 87 44 104 262 98 111 52 148 50 51 92 93 71 50 61 66 81
internal_value=-1.09943 -1.08485 -1.09857 -1.10254 -1.08808 -1.06449 -1.05613 -1.06307 -1.05022 -1.02636 -1.07073 -1.1031 -1.11933 -1.1009 -1.10305 -1.13012 -1.1283 -1.12294 -1.11039 -1.1331 -1.12857 -1.12023 -1.13237 -1.12855 -1.14013
internal_weight=744.65 494.763 334.876 317.792 170.688 66.4078 159.888 141.695 107.235 49.5745 57.6604 104.28 147.104 54.3282 34.4604 92.7757 249.887 118.048 50.6209 131.839 80.1591 43.7323 67.4267 47.3137 51.6801
internal_count=2228 1560 1004 939 532 224 556 482 380 189 191 308 407 161 102 246 668 323 145 345 214 121 178 127 131
is_linear=0
shrinkage=1


Tree=2
num_leaves=21
num_cat=0
split_feature=5 13 11 13 0 8 2 2 10 4 15 3 2 11 0 16 1 14 4 5
split_gain=71.3184 42.366 23.8276 19.2772 18.5487 17.8984 12.6428 15.4973 13.5285 10.9768 10.7248 15.7464 9.86854 3.56548 6.38522 3.47096 1.92657 0.642338 0.0713215 2.13163e-14
threshold=0.78901496067007226 -0.03290603426440724 -0.32703126669188537 -1.0151019043898846 -0.35510083576680468 -0.26109134499773962 0.14200215288833087 -0.84006408320077097 0.1818311635029454 0.40898447955785794 -0.40128435361337039 -0.0059565137173818996 -0.49483685357804391 -0.32683451306826722 -0.34961320230382609 -0.11261235328157923 0.52645136789461222 0.4117153290948406 0.04446698668403521 1.2384573197217261
decision_type=2 2 2 2 2 2 2 2 2 2 2 2 2 2 2 2 2 2 2 2
left_child=1 4 12 -2 -1 -6 7 -4 -9 -8 -7 -12 -3 19 -15 -14 17 -16 -17 -5
right_child=3 2 6 13 5 10 9 8 -10 -11 11 -13 15 14 16 18 -18 -19 -20 -21
leaf_value=-1.1125632634984557 -1.0763748479941035 -1.1009222953371041 -1.0571743344946392 -1.148612264667848 -1.1068375596147142 -1.0341795251306209 -1.0517236997026602 -1.1101371578732881 -1.0757017626634737 -1.0948039262713978 -1.061812877709909 -1.1078329614613489 -1.1182805889566012 -1.1003322057146283 -1.1372557851614837 -1.1486122669155741 -1.125964136099334 -1.1486122670592058 -1.1441266279265407 -1.1486122667615974
leaf_weight=28.218340337276459 14.962061807513235 25.32977232336998 18.773364245891571 26.131012290716171 27.394528865814209 26.668320819735527 27.560144767165184 176.81074632704258 34.007855206727982 31.902072980999947 125.25185865163803 21.826944574713707 14.672575458884237 14.485370889306067 27.991808861494064 23.644598707556725 28.07193711400032 22.427583396434784 14.173614829778669 14.345724046230314
leaf_count=91 47 85 54 103 88 69 74 517 94 93 343 60 47 47 92 71 88 66 55 44
internal_value=-1.09918 -1.09146 -1.102 -1.13019 -1.0746 -1.06928 -1.09538 -1.10071 -1.10458 -1.07484 -1.06335 -1.06864 -1.12655 -1.13623 -1.13083 -1.13892 -1.13646 -1.14231 -1.14693 -1.14861
internal_weight=744.65 596.235 366.875 148.415 229.36 201.142 289.054 229.592 210.819 59.4622 173.747 147.079 77.8206 133.453 92.9767 52.4908 78.4913 50.4194 37.8182 40.4767
internal_count=2228 1741 1090 487 651 560 832 665 611 167 472 403 258 440 293 173 246 158 126 147
is_linear=0
shrinkage=1


Tree=3
num_leaves=27
num_cat=0
split_feature=13 9 12 5 11 14 7 0 11 10 14 11 4 4 10 2 11 14 10 9 10 17 13 12 15 2
split_gain=89.9648 24.8861 29.2448 21.5871 14.9105 13.9912 14.9658 11.8146 10.1987 15.3166 8.81102 8.75301 8.49382 16.76 7.92988 7.63942 19.0539 6.71245 4.8673 4.32094 3.26477 2.99014 2.3776 0.667917 0.313917 0.000726529
threshold=0.03648261409965791 -0.10927056465823634 -0.34008101375589678 0.9218491486277457 -0.266268710941925 0.043164621836106205 0.91663129224051321 -0.26395882085251865 -0.32590359649288453 0.3299344006345527 -0.031084065799670445 0.50968518377471428 -0.66926690017745527 -0.38420102820833896 -0.22285650039357749 -0.37235898594494982 -0.3217583282231023 0.067028776520758768 -0.006065482799855049 0.13079554373712207 -0.14046598107964317 0.75353138626489546 -0.019844641631172149 -0.41486388708754846 -0.046465001704971538 0.98518140315825542
decision_type=2 2 2 2 2 2 2 2 2 2 2 2 2 2 2 2 2 2 2 2 2 2 2 2 2 2
left_child=1 4 8 12 22 6 11 -5 9 19 21 -4 -2 17 -10 18 -17 -14 -15 -3 -8 -6 -1 -16 25 -24
right_child=3 2 5 7 10 -7 20 -9 14 -11 -12 -13 13 15 23 16 -18 -19 -20 -21 -22 -23 24 -25 -26 -27
leaf_value=-0.027921221896672316 -0.011896835100030491 -0.011724896763751975 -0.013954294591866579 0.030141738900628264 -0.0057625168411092244 0.038511880513901788 0.016062160451250293 0.084313979684035645 -0.004001016886233476 0.034264751928953716 0.017525033462793504 0.019696193756788594 0.028952841907213353 -0.022535668489904695 -0.03468705682757197 0.057708358960070261 0.0094391093390173084 0.06997390929784747 0.0096586590184790499 -0.041797553067669427 0.047327547674403808 -0.034357844267687808 -0.048700637945502306 -0.046024817951093221 -0.04021165616379524 -0.049128413916395518
leaf_weight=22.010165020823479 20.21043772995472 60.866383075714111 81.168236210942268 19.039475083351135 14.887803480029104 35.129765301942825 15.99012006819248 21.352158948779106 18.214040383696556 17.508324727416039 20.071804970502853 25.363373070955276 18.569352716207504 16.915086001157761 20.285896360874176 28.35329182446003 73.29785068333149 21.541096329689026 38.373268812894821 14.861096054315565 17.474064022302628 23.687663033604622 36.339239984750748 36.117840468883514 13.446820378303526 13.655555129051207
leaf_count=65 58 189 239 61 49 92 53 54 58 53 55 67 50 49 63 74 202 58 114 49 48 66 144 119 50 49
internal_value=0.00131908 -0.0113203 -0.00399462 0.0252131 -0.0287565 0.0102993 0.00321979 0.0587787 -0.0189078 -0.00788207 -0.00934211 -0.00594268 0.0189728 0.022139 -0.0326846 0.014767 0.0229027 0.050983 -0.000190971 -0.0176265 0.0323881 -0.0233218 -0.0420809 -0.0419471 -0.0469934 -0.0488175
internal_weight=744.73 487.078 342.979 257.652 144.099 175.126 139.996 40.3916 167.854 93.2358 58.6473 106.532 217.26 197.05 74.6178 156.939 101.651 40.1104 55.2884 75.7275 33.4642 38.5755 85.4518 56.4037 63.4416 49.9948
internal_count=2228 1508 1030 720 478 499 407 115 531 291 170 306 605 547 240 439 276 108 163 238 101 115 308 182 243 193
is_linear=0
shrinkage=0.05


Tree=4
num_leaves=26
num_cat=0
split_feature=0 4 0 17 3 17 10 11 12 3 17 11 7 12 12 13 17 3 4 15 14 1 17 11 1
split_gain=114.289 69.3975 23.7089 25.3202 21.6973 33.7497 21.4882 18.8603 12.3032 12.2869 11.7559 11.6315 8.51484 7.68204 19.3692 3.58033 4.39587 3.41883 2.77277 3.43405 1.99936 2.03574 1.24761 1.00852 0.919327
threshold=-0.14040191611048228 0.40898447955785794 -0.16810485740204026 -0.6625512686287347 -0.32288486898868435 -0.80686491625216405 0.24010451939941854 -0.32699463228990261 -0.20612763245571883 -0.39089500501247243 -0.82075667141379116 0.537730147865639 -0.71933390561339949 -0.40770022570406078 -0.41495414534934721 0.22769575248196913 0.67589554897076232 -0.16108869342228013 -0.32708010596218401 -0.17018443362700478 0.097938218065905316 -0.5717932945298273 0.99612831054098361 0.52547569729390509 -0.050163771902787639
decision_type=2 2 2 2 2 2 2 2 2 2 2 2 2 2 2 2 2 2 2 2 2 2 2 2 2
left_child=1 2 3 4 10 -6 7 -3 11 12 -1 -9 -5 14 -8 16 18 -11 -2 -20 21 22 -18 -17 -23
right_child=15 6 -4 9 5 -7 13 8 -10 17 -12 -13 -14 -15 -16 23 20 -19 19 -21 -22 24 -24 -25 -26
leaf_value=-0.041255313884565437 -0.0033571839433996424 0.092867568023512037 0.055536611698202891 -0.024512347990575434 0.089270420769755665 0.0099001544804212926 -0.0076093511617560342 0.072603052551333272 0.0068901424362986701 -0.043536482974652735 0.0031590412719526314 0.028042090448315755 0.014678780360776127 -0.0038681212876724991 0.068021910314317743 -0.044905506551337168 -0.021676738279469008 -0.022954561192973483 -0.0075525539020562778 -0.0366157916753597 -0.018047853639781918 -0.04916210925522288 -0.037725741438068332 -0.030828637324776548 -0.034969434174039242
leaf_weight=17.913763701915741 28.353333383798599 23.686475157737732 18.15948486328125 23.001079738140106 18.590694472193718 47.909600898623466 16.172734662890434 33.520724341273308 18.963904678821564 32.346416398882866 88.520317524671555 26.005083665251732 34.870466962456703 26.707513451576233 17.763477236032486 35.497782990336418 33.053654879331589 53.627030298113823 18.318539217114449 22.831973627209663 23.44985930621624 22.659643530845642 19.110750332474709 19.832200437784195 22.982195764780045
leaf_count=46 84 94 65 62 73 148 47 126 58 83 269 86 110 79 66 91 92 148 54 60 67 56 50 54 60
internal_value=-0.000788145 0.0129924 -2.43611e-05 -0.00320941 0.00968294 0.0320888 0.0397694 0.0537631 0.0419623 -0.0187089 -0.00431627 0.0531357 -0.000897756 0.0161918 0.0319789 -0.0286617 -0.0254136 -0.0306982 -0.0153884 -0.023678 -0.0311601 -0.0343039 -0.0275564 -0.0398599 -0.0420156
internal_weight=743.849 497.759 334.939 316.779 172.934 66.5003 162.82 102.176 78.4897 143.845 106.434 59.5258 57.8715 60.6437 33.9362 246.09 190.76 85.9734 69.5038 41.1505 121.256 97.8062 52.1644 55.33 45.6418
internal_count=2228 1560 1004 939 536 221 556 364 270 403 315 212 172 192 113 668 523 231 198 114 325 258 142 145 116
is_linear=0
shrinkage=0.05


Tree=5
num_leaves=23
num_cat=0
split_feature=5 13 11 13 0 7 2 2 10 4 1 2 11 16 2 17 16 7 10 9 4 11
split_gain=65.3598 37.8948 22.5201 19.5858 17.0317 13.5943 12.6661 14.2426 12.3984 9.86276 9.23287 9.17635 7.47654 10.851 9.99462 4.80514 3.35534 3.3319 1.97703 1.34339 0.0736605 0.00146418
threshold=0.77155328588988736 -0.03290603426440724 -0.32703126669188537 -1.0151019043898846 -0.35510083576680468 -0.73104348207323644 0.14200215288833087 -0.84006408320077097 0.1818311635029454 0.40898447955785794 -0.48400146973272828 -0.49483685357804391 -0.3256399453068432 -0.44477677688339129 -0.35134002309438256 -0.82483019188972728 -0.11602896324855619 1.0557311243371916 0.30351646687694356 -0.35395550200133358 0.04446698668403521 -0.32681523816517455
decision_type=2 2 2 2 2 2 2 2 2 2 2 2 2 2 2 2 2 2 2 2 2 2
left_child=1 4 11 -2 -1 10 7 -4 -9 -8 -6 -3 14 -14 -7 -5 -13 18 -17 -19 -18 -21
right_child=3 2 6 15 5 12 9 8 -10 -11 -12 16 13 -15 -16 17 20 19 -20 21 -22 -23
leaf_value=-0.013698202031577442 0.022993930676578525 -0.0025733620993740958 0.039420872890745244 -0.011167558007449292 0.030581272053580102 0.026289083345075317 0.045786793442211857 -0.011103801061342034 0.021746927966313834 0.0044822922564160391 0.073013148271433834 -0.018763523421540022 -0.0066554955259652592 0.038890422420894549 -0.012501787041178679 -0.039303948423387997 -0.048935058715597404 -0.032702494771171139 -0.016637381628635966 -0.048698846332952912 -0.044331817046135688 -0.049208537865088692
leaf_weight=28.132057324051857 15.554485648870466 25.395840123295784 19.03806434571743 16.667912870645523 28.079534411430359 34.667905211448669 27.620381325483322 175.95019139349461 34.325359120965004 30.315062403678894 23.590874299407005 14.357484608888624 16.189674511551857 68.018173202872276 31.870927318930626 18.968241229653358 23.339393064379692 15.742926627397535 19.520368605852127 21.328117981553078 13.84629265964031 41.520508140325546
leaf_count=91 48 85 54 59 73 100 73 517 94 89 58 46 53 181 91 55 72 59 53 74 55 148
internal_value=-0.000532362 0.00689267 -0.00314923 -0.0301095 0.0227554 0.0278218 0.00328559 -0.0019918 -0.00574125 0.024174 0.0499542 -0.0271734 0.0202356 0.0301338 0.00770894 -0.0362853 -0.0392941 -0.0398611 -0.0278081 -0.0457638 -0.047221 -0.0490356
internal_weight=744.04 594.737 364.188 149.303 230.549 202.417 287.249 229.314 210.276 57.9354 51.6704 76.939 150.747 84.2078 66.5388 133.748 51.5432 117.08 38.4886 78.5916 37.1857 62.8486
internal_count=2228 1732 1085 496 647 556 827 665 611 162 131 258 425 234 191 448 173 389 108 281 127 222
is_linear=0
shrinkage=0.05


Tree=6
num_leaves=29
num_cat=0
split_feature=13 9 12 5 11 14 7 0 11 4 17 14 11 0 5 11 9 10 14 12 11 17 10 13 8 12 15 9
split_gain=81.0646 23.1264 27.0711 19.0817 14.2553 12.6489 13.5862 9.97846 9.67689 14.7207 13.4509 8.54357 8.10983 7.84189 21.6971 12.3701 13.8872 7.59377 6.7034 6.27816 4.41204 3.53949 2.2149 2.20804 1.98347 0.650163 0.344081 0.00170675
threshold=0.03648261409965791 -0.10927056465823634 -0.34008101375589678 0.9218491486277457 -0.266268710941925 0.043164621836106205 0.91663129224051321 -0.26395882085251865 -0.32590359649288453 -0.34251431040542407 -0.72113113487969016 -0.021601599387328748 0.50968518377471428 0.14511183185349782 -0.55482025877042851 -0.32617326048948253 0.056479863164967357 -0.22285650039357749 0.00040036632414680004 -0.40488678242513237 0.51941780921259517 0.84554173930991527 -0.13571971827510382 -0.019844641631172149 -0.0078843892653803985 -0.41486388708754846 -0.045992258845347342 -0.24803475101769049
decision_type=2 2 2 2 2 2 2 2 2 2 2 2 2 2 2 2 2 2 2 2 2 2 2 2 2 2 2 2
left_child=1 4 8 13 23 6 12 -5 9 18 -11 21 -4 14 -2 16 -16 -10 -3 -17 24 -6 -8 -1 -15 -19 27 -25
right_child=3 2 5 7 11 -7 22 -9 17 10 -12 -13 -14 20 15 19 -18 25 -20 -21 -22 -23 -24 26 -26 -27 -28 -29
leaf_value=-0.027390139837356192 -0.035504685703328653 -0.046588415611184202 -0.013451318280765154 0.028642931767394565 -0.006917397073247857 0.036491484277135652 0.017544672984093682 0.077929440704967462 -0.0037604719828675578 -0.011109717634128869 0.042357698376730493 0.019018559267822723 0.018884111140255351 0.031174888628243965 0.018267281197682571 0.013941179042880182 0.066299870242635006 -0.033809994306406459 -0.0078216747426876621 -0.020640921922041047 0.015651915431332528 -0.036821275652127387 0.043133813260542046 -0.047543831713504195 0.052621740264684927 -0.045093194823141364 -0.038287778417927118 -0.048202108404579343
leaf_weight=21.831597432494164 21.145122915506363 23.488357856869698 80.657930210232735 19.244346752762794 19.623947605490685 35.605291768908501 16.450916334986687 22.020226806402206 18.160626038908958 27.614447087049484 20.491522163152695 18.692889705300331 25.527806252241135 22.184330940246582 47.850890144705772 38.678852304816246 21.951512143015862 19.977461099624634 21.229981824755669 19.864209890365601 26.41548353433609 19.959822446107864 17.401135325431824 36.229356378316879 20.971720635890961 35.374462053179741 11.992455318570135 13.521895214915274
leaf_count=65 61 80 239 61 63 92 54 54 58 92 59 51 67 56 141 114 57 63 60 51 72 56 47 149 53 119 45 49
internal_value=0.00125618 -0.0108488 -0.00380848 0.023754 -0.0278218 0.00988145 0.00311571 0.0549439 -0.0182643 -0.00753202 0.0116656 -0.00884026 -0.00567765 0.0178788 0.0114251 0.0191569 0.0333726 -0.031816 -0.0281839 0.00220715 0.031746 -0.0219962 0.0306984 -0.0410576 0.041597 -0.0410209 -0.0458902 -0.0477227
internal_weight=744.159 483.832 341.98 260.327 141.852 175.643 140.038 41.2646 166.337 92.8243 48.106 58.2767 106.186 219.062 149.491 128.345 69.8024 73.5125 44.7183 58.5431 69.5715 39.5838 33.8521 83.5753 43.1561 55.3519 61.7437 49.7513
internal_count=2228 1508 1030 720 478 499 407 115 531 291 151 170 306 605 424 363 198 240 140 165 181 119 101 308 109 182 243 198
is_linear=0
shrinkage=0.05


Tree=7
num_leaves=26
num_cat=0
split_feature=0 4 5 17 3 17 10 11 9 12 3 15 7 12 12 6 15 17 4 15 16 1 11 1 16
split_gain=104.401 61.9787 33.6459 25.7826 19.7067 29.7467 18.8883 16.2911 11.308 11.2626 10.9282 10.0282 8.91456 6.87862 17.2495 3.61285 3.14135 4.01071 2.8037 3.44742 1.55271 2.1258 0.960867 0.866098 0.702294
threshold=-0.14040191611048228 0.40898447955785794 -0.68837534638987663 -0.67325917514343747 -0.32288486898868435 -0.80552934448971658 0.24010451939941854 -0.32699463228990261 0.065022534674924609 -0.20612763245571883 -0.39089500501247243 0.032714386924896456 -0.71933390561339949 -0.40770022570406078 -0.41495414534934721 -0.18614946266783086 0.19761568258529588 0.67589554897076232 -0.32708010596218401 -0.17018443362700478 0.037022068140440755 -0.5717932945298273 0.52547569729390509 -0.050163771902787639 -0.10637195992784428
decision_type=2 2 2 2 2 2 2 2 2 2 2 2 2 2 2 2 2 2 2 2 2 2 2 2 2
left_child=1 2 -1 4 8 -6 7 -3 -4 11 12 -9 -5 14 -8 -12 17 18 -2 -20 21 24 -18 -23 -19
right_child=16 6 3 10 5 -7 13 9 -10 -11 15 -13 -14 -15 -16 -17 22 20 19 -21 -22 23 -24 -25 -26
leaf_value=0.068763010219507412 -0.0030118079956499232 0.086015063059582453 0.0077705561387242592 -0.028638686917090629 0.081068125487351539 0.0087921680346762961 -0.0075526853174641452 0.061781615752021339 -0.026789981243238344 0.0058901864450919047 -0.041759773351414849 0.015120568944351639 0.013314330433814909 -0.0037848578001807515 0.063415816708859943 -0.021483853568817938 -0.043692850831917721 -0.021035675699934253 -0.0071472877979162786 -0.036177351527832996 -0.019076162937115181 -0.048097145479082282 -0.029694213041415597 -0.034227601621574497 -0.03301964752386706
leaf_weight=16.857026427984238 28.243826299905777 24.427626311779022 67.653321072459221 19.696919217705727 20.253369480371475 47.917106032371521 16.159156262874603 45.207587882876396 36.403815865516663 19.12311840057373 37.580493703484535 15.450060740113257 35.454626500606537 26.679390951991081 18.212308526039124 52.889906212687492 33.107343778014183 29.136685699224472 18.231236681342125 23.292847186326981 24.720587253570557 22.077285885810852 19.465732172131538 22.964024677872658 21.06281866133213
leaf_count=62 84 94 209 53 77 147 47 163 99 58 98 49 111 79 66 148 87 82 54 62 71 56 54 61 57
internal_value=-0.000758502 0.0122957 -7.43546e-05 -0.00372512 0.00936925 0.0302653 0.0373493 0.0502876 -0.00432026 0.0393485 -0.0192119 0.0498966 -0.00166884 0.0152647 0.0300512 -0.0299063 -0.0276945 -0.0246977 -0.0151652 -0.0234316 -0.0302416 -0.0331397 -0.0385097 -0.0410258 -0.0260639
internal_weight=742.268 499.966 334.707 317.85 172.228 68.1705 165.259 104.208 104.057 79.7808 145.622 60.6576 55.1515 61.0509 34.3715 90.4704 242.302 189.729 69.7679 41.5241 119.961 95.2408 52.5731 45.0413 50.1995
internal_count=2228 1560 1004 942 532 224 556 364 308 270 410 212 164 192 113 246 668 527 200 116 327 256 141 117 139
is_linear=0
shrinkage=0.05


Tree=8
num_leaves=21
num_cat=0
split_feature=5 13 11 12 13 0 8 2 0 16 2 2 17 16 7 14 3 8 4 11
split_gain=59.8484 34.1463 20.8792 19.0415 16.5229 15.3956 15.1362 13.5812 11.2285 9.26958 8.55801 7.33608 5.27435 3.1846 2.95329 1.70588 0.672472 1.01741 0.0785162 0.000629387
threshold=0.78901496067007226 -0.03290603426440724 -0.32703126669188537 0.6064891561826935 -1.0151019043898846 -0.35510083576680468 -0.26109134499773962 -0.84006408320077097 0.12255655938012157 -0.32336800928153253 -0.49483685357804391 -0.35134002309438256 -0.82707253578543094 -0.11602896324855619 1.0557311243371916 0.67498485226501204 0.92037293853933522 0.0084057088185354508 0.04446698668403521 -0.32677897290116559
decision_type=2 2 2 2 2 2 2 2 2 2 2 2 2 2 2 2 2 2 2 2
left_child=1 5 10 7 -2 -1 -7 -4 -9 -8 -3 -11 -6 -12 15 -14 17 -16 -15 -18
right_child=4 2 3 -5 12 6 9 8 -10 11 13 -13 14 18 16 -17 19 -19 -20 -21
leaf_value=-0.013409744838904954 0.019653136552373898 -0.0027810619940336154 0.039472123041444665 0.040158686517341446 -0.0080478538475881461 -0.0084780921604617285 0.060513167289290182 0.0020830183967915934 -0.022081581355583961 0.035332742064331471 -0.018330939801733805 0.012820729235175053 -0.01601869518135823 -0.047997429464188002 -0.047725280342167303 -0.03788461026531894 -0.047768603772803564 -0.028060830092724084 -0.043184347493557214 -0.048144964469212091
leaf_weight=28.030323445796967 15.269346401095389 25.444681361317635 18.834119960665703 30.831781059503555 15.524263143539427 27.450857937335968 23.713407263159752 173.23675285279751 66.537262067198753 97.104027211666107 14.277138978242872 57.688212066888809 17.36387611925602 22.786488384008408 13.537058651447298 18.341851398348808 16.46588608622551 12.794686794281004 13.489434719085692 34.140392974019051
leaf_count=91 47 85 52 81 56 88 58 518 181 256 46 158 52 72 55 50 57 46 55 124
internal_value=-0.000500477 0.00644186 -0.00310726 0.00301684 -0.0295125 0.0213556 0.0260871 -0.00141129 -0.00462266 0.0314025 -0.0264311 0.0269429 -0.0353699 -0.0383347 -0.0391353 -0.0272511 -0.0446506 -0.0381703 -0.0462077 -0.0480225
internal_weight=742.862 599.424 365.438 289.44 143.437 233.987 205.957 258.608 239.774 178.506 75.9977 154.792 128.168 50.5531 112.644 35.7057 76.938 26.3317 36.2759 50.6063
internal_count=2228 1741 1090 832 487 651 560 751 699 472 258 414 440 173 384 102 282 101 127 181
is_linear=0
shrinkage=0.05


Tree=9
num_leaves=20
num_cat=0
split_feature=13 16 6 8 1 4 1 0 5 11 0 12 11 4 6 12 15 15 6
split_gain=72.9574 21.5835 26.3647 17.0022 14.2012 13.4337 12.3479 10.8632 19.3147 12.4236 9.18156 7.59431 7.15315 5.82779 5.32737 3.05477 5.77103 1.55646 0.00663372
threshold=0.03648261409965791 -0.035946974769426793 1.3890900222065208 0.57971753580051599 -1.1756202694626878 0.56733095600645245 -1.019820623302645 0.14511183185349782 -0.55482025877042851 -0.32617326048948253 -0.30729820783885892 -0.26703623385558067 -0.32670189518028753 -0.064226556125466586 0.40832542883773004 0.071171587937461825 0.063399020438518111 -0.076283478618596981 0.97814796908890511
decision_type=2 2 2 2 2 2 2 2 2 2 2 2 2 2 2 2 2 2 2
left_child=1 2 4 7 17 11 -6 8 -2 12 -8 13 -10 -3 -11 16 -9 -1 -19
right_child=3 5 -4 -5 6 -7 10 15 9 14 -12 -13 -14 -15 -16 -17 -18 18 -20
leaf_value=-0.031590889797439223 -0.034630396707229026 -0.01176253604792522 0.042922318205477317 0.056974030749660558 0.014912209243403061 -0.029706273601346801 -0.026740447488020798 0.016609621646433641 0.019487382227399583 -0.012390151750781951 -0.0080635845497876221 0.035002202365536778 0.052379215306623199 0.023252827260188833 0.016482552076048589 0.017299944430549545 0.051359987600500506 -0.046888464899346984 -0.048335506909087562
leaf_weight=27.99371899664402 20.817670464515686 24.948160082101822 18.121011838316917 31.296486258506775 32.245034620165825 17.706213817000389 138.47016148269176 17.961746320128441 45.511902913451195 34.131148397922516 125.3917391449213 37.471519634127617 25.956881999969482 22.690818563103676 30.03572590649128 21.185466840863228 35.680972814559937 23.256194233894348 12.01049320399761
leaf_count=95 61 72 53 80 96 64 478 48 131 97 347 95 70 64 90 54 89 97 47
internal_value=0.00119466 -0.0103908 -0.0159225 0.0223867 -0.0188897 0.00991835 -0.0142956 0.0177065 0.0102124 0.0170949 -0.0178649 0.0181618 0.0314334 0.00491556 0.00112481 0.0333754 0.0397242 -0.0403938 -0.0473813
internal_weight=742.883 480.305 377.488 262.578 359.367 102.817 296.107 231.282 156.453 135.636 263.862 85.1105 71.4688 47.639 64.1669 74.8282 53.6427 63.2604 35.2667
internal_count=2228 1508 1213 720 1160 295 921 640 449 388 825 231 201 136 187 191 137 239 144
is_linear=0
shrinkage=0.05


Tree=10
num_leaves=26
num_cat=0
split_feature=0 4 5 17 3 17 5 7 4 6 10 8 3 7 6 13 17 4 15 14 1 8 17 11 1
split_gain=95.5182 55.4668 30.3942 23.7412 17.6789 26.6894 17.0824 22.5067 16.4276 21.9392 12.1613 10.746 10.4361 8.45401 3.4622 3.30595 3.9212 2.54317 3.16835 1.9188 1.93324 1.79121 1.23849 0.996041 0.868437
threshold=-0.14040191611048228 0.40898447955785794 -0.68837534638987663 -0.67325917514343747 -0.32288486898868435 -0.80686491625216405 0.27808029185072164 1.0642029727340476 0.96880567500068204 1.3352121246183908 1.0030804192688971 -0.0078843892653803985 -0.39089500501247243 -0.71933390561339949 -0.18614946266783086 0.22769575248196913 0.67589554897076232 -0.32708010596218401 -0.17018443362700478 0.097938218065905316 -0.5717932945298273 -0.21421061309415443 0.99612831054098361 0.52547569729390509 -0.050163771902787639
decision_type=2 2 2 2 2 2 2 2 2 2 2 2 2 2 2 2 2 2 2 2 2 2 2 2 2
left_child=1 2 -1 4 11 -6 -3 21 9 -9 -10 -4 13 -5 -14 16 17 -2 -19 20 22 -8 -18 -17 -22
right_child=15 6 3 12 5 -7 7 8 10 -11 -12 -13 14 -15 -16 23 19 18 -20 -21 24 -23 -24 -25 -26
leaf_value=0.064612136133671519 -0.0025725913666309599 0.078875451015015655 0.013841823270043527 -0.02793713188544408 0.078021684760126844 0.0089531000402958191 0.0055331873957299741 0.08023403223502179 0.036866128259650043 0.0076224879462840666 -0.012507280776839855 -0.018530497005860968 -0.040887600945481745 0.013057596627106647 -0.020889088697599482 -0.042940259185873519 -0.019749487779212101 -0.0066802924120527452 -0.034878554763838811 -0.016183177959503463 -0.047191672674303478 -0.01712626504959542 -0.03599422236821119 -0.028665984741059015 -0.033095690702572976
leaf_weight=17.207533895969391 28.103995949029922 19.718089759349823 46.150176033377647 19.468213587999344 19.520719230175018 49.337612673640251 17.487066328525543 38.406241238117218 42.260622173547745 14.267243102192877 17.693726971745491 57.669302567839622 36.853604942560196 35.523943468928337 52.432664602994919 33.882476538419724 32.137746766209602 18.129501640796661 22.110686361789703 22.849304959177971 21.518944680690765 17.398791253566742 18.479607835412025 19.116036236286163 22.19826440513134
leaf_count=62 84 74 145 53 73 151 53 145 141 44 50 163 98 111 148 91 92 54 60 67 56 49 50 54 60
internal_value=-0.000732177 0.0116586 -0.000105977 -0.00361952 0.00888896 0.0285334 0.0351666 0.0293241 0.0401937 0.0605663 0.022295 -0.00414025 -0.0185901 -0.00145528 -0.0291436 -0.0267782 -0.0236321 -0.0141138 -0.0221743 -0.0291834 -0.0323322 -0.00576787 -0.0256802 -0.0377917 -0.0400342
internal_weight=739.922 501.396 334.164 316.956 172.678 68.8583 167.232 147.514 112.628 52.6735 59.9543 103.819 144.278 54.9922 89.2863 238.527 185.528 68.3442 40.2402 117.184 94.3346 34.8859 50.6174 52.9985 43.7172
internal_count=2228 1560 1004 942 532 224 556 482 380 189 191 308 410 164 246 668 523 198 114 325 258 102 142 145 116
is_linear=0
shrinkage=0.05


Tree=11
num_leaves=20
num_cat=0
split_feature=5 13 0 13 12 9 8 8 16 16 10 17 0 17 7 10 9 11 13
split_gain=54.8272 30.872 19.1073 17.0468 16.7377 12.8652 19.1633 11.9719 10.8385 10.3103 13.4538 6.98725 5.804 4.33715 3.68639 2.38366 1.33211 1.24252 0.00315835
threshold=0.77155328588988736 -0.013692152942040948 -0.35630902769916123 -1.0436203937329425 0.84947496163433878 -0.59766106055451895 -0.11201157385908449 -0.23459068483767267 -0.16713182314234543 -0.32336800928153253 0.049629976095887506 -0.6625512686287347 -0.31449916028676478 -0.82483019188972728 1.0557311243371916 0.30351646687694356 -0.35395550200133358 -0.32694378129046026 -0.031385421704508844
decision_type=2 2 2 2 2 2 2 2 2 2 2 2 2 2 2 2 2 2 2
left_child=1 2 17 -2 5 -3 8 12 -7 -9 -11 -8 -4 -5 15 -15 -16 -1 -18
right_child=3 4 7 13 -6 6 11 9 -10 10 -12 -13 -14 14 16 -17 18 -19 -20
leaf_value=-0.0084383578439893511 0.023490864737148183 -0.043475641189651165 0.01732431111126078 -0.0098189677214858984 0.031376913070940947 0.00054873423209421022 -0.022536482946482993 0.058976430505541105 0.044347614981248236 0.014528269430451818 0.043505184732899202 -0.0041852606305720344 -0.024457366496965217 -0.037555445671569404 -0.030443189263211969 -0.012428033624976182 -0.047739122094600961 -0.028553699503243147 -0.04685936220757117
leaf_weight=15.458114311099054 14.385106742382048 23.214881390333176 16.013975039124489 16.368455737829208 30.123887866735458 29.993817269802094 86.085821971297264 23.698352202773094 26.697041004896164 123.53424389660358 59.278785154223442 130.50306876003742 17.281549468636513 18.309417113661766 15.093539670109747 19.479593440890312 12.99562384188175 15.251085251569746 47.451777070760727
leaf_count=50 43 89 50 59 82 90 278 56 71 339 153 364 57 55 59 54 49 53 177
internal_value=-0.000466445 0.00621339 0.0187056 -0.0281501 -0.00413308 -0.0077409 -0.00470526 0.0234609 0.0211746 0.0279467 0.0239243 -0.0114792 -0.00436185 -0.0338777 -0.0373526 -0.0246027 -0.0437307 -0.0184282 -0.0470485
internal_weight=741.218 597.135 270.516 144.084 326.619 296.495 273.28 239.807 56.6909 206.511 182.813 216.589 33.2955 129.698 113.33 37.789 75.5409 30.7092 60.4474
internal_count=2228 1732 758 496 974 892 803 655 161 548 492 642 107 453 394 109 285 103 226
is_linear=0
shrinkage=0.05


Tree=12
num_leaves=28
num_cat=0
split_feature=15 9 12 8 11 16 1 4 0 5 4 17 11 4 17 9 16 10 11 16 17 10 15 3 12 5 4
split_gain=63.8606 21.9284 23.7099 15.8266 12.952 11.0296 10.4567 9.88498 9.82806 19.4236 11.8694 10.3846 9.34352 14.6251 11.4001 8.55136 8.30868 8.1947 8.0369 6.30831 3.57598 3.54562 2.23256 2.12985 0.643246 0.0913977 0.00264582
threshold=-0.023770396338649597 -0.10927056465823634 -0.34008101375589678 0.57971753580051599 -0.266268710941925 -0.096840354273080589 0.66846868651939662 -0.49872690342063647 0.14511183185349782 -0.55482025877042851 -0.38420102820833896 -0.71906465811300679 -0.32577590342555068 -0.34251431040542407 -0.72113113487969016 -0.017262472827467096 -0.08803858997218364 -0.23074079477629678 -0.32704590294235547 -0.067295850717356387 0.80157556506526373 -0.17882554725626201 -0.075635332525643834 -0.47429613876305127 -0.41486388708754846 -0.22826362691879912 0.956909536621532
decision_type=2 2 2 2 2 2 2 2 2 2 2 2 2 2 2 2 2 2 2 2 2 2 2 2 2 2 2
left_child=1 4 12 8 22 7 15 -4 9 -2 -11 -12 13 19 -15 -7 20 -14 -9 -3 -6 -10 -1 -23 -19 -24 -27
right_child=3 2 5 -5 16 6 -8 18 21 10 11 -13 17 14 -16 -17 -18 24 -20 -21 -22 23 25 -25 -26 26 -28
leaf_value=-0.026246719140934033 -0.034852476285720503 -0.045249012403685278 -0.037654427312431821 0.053521266397497602 -0.0058194868578767224 0.0027952099939829392 -0.009531567245885152 -0.026053446246191714 0.012816701158735717 0.051746570907007988 0.035655657625209496 0.0015935064007037221 4.843189607930437e-05 -0.0078624570749783497 0.042009272020965771 0.044760755792513235 0.018608687280132163 -0.032638164994999726 0.014194753070593161 -0.0072855226235053671 -0.036322653967177952 0.049544859669508667 -0.041400630783097581 0.02960509549252658 -0.043989043192853364 -0.045910748118372424 -0.04670687738182655
leaf_weight=21.421049818396568 21.885263308882713 22.74046616256237 16.048110067844391 31.778410941362381 18.054928839206696 16.662137717008591 18.480057418346405 15.755632266402243 20.855146855115891 19.725300893187523 29.617922738194466 91.51482866704464 16.831899464130402 27.167749539017677 19.817522451281548 44.71956430375576 18.627828925848007 19.519342795014381 58.293291926383972 21.091938406229019 20.537865310907364 21.057943999767303 12.715103745460508 36.788160026073456 34.615311771631241 28.673326820135117 16.407755628228188
leaf_count=65 66 80 46 80 60 50 57 52 54 54 84 263 53 91 57 120 50 63 158 60 59 52 54 93 121 123 63
internal_value=0.00114196 -0.0100682 -0.0031286 0.0203511 -0.0269415 0.00991299 0.0234419 -0.002079 0.0159853 0.00897018 0.015779 0.00992197 -0.0168291 -0.00620733 0.0131725 0.0333692 -0.00881537 -0.0304221 0.00563101 -0.0269812 -0.0220523 0.0304916 -0.0400344 0.0368638 -0.0398963 -0.0451445 -0.0462005
internal_weight=741.404 468.181 331.743 273.223 136.438 169.959 79.8618 90.097 241.445 162.743 140.858 121.133 161.784 90.8177 46.9853 61.3817 57.2206 70.9666 74.0489 43.8324 38.5928 78.7013 79.2172 57.8461 54.1347 57.7962 45.0811
internal_count=2228 1482 1008 746 474 483 227 256 666 467 401 347 525 288 148 170 169 237 210 140 119 199 305 145 184 240 186
is_linear=0
shrinkage=0.05


Tree=13
num_leaves=21
num_cat=0
split_feature=7 9 17 16 4 6 3 17 10 11 15 17 4 17 13 10 3 4 5 11
split_gain=68.3447 55.0912 42.4437 15.7727 14.2265 29.2175 13.9215 20.5665 12.7535 10.6641 7.35908 7.69872 7.93334 7.2539 6.31184 2.90027 1.79055 1.25831 1.07125 0.0741084
threshold=1.0642029727340476 -0.83621981004624779 -0.67325917514343747 -0.0025600103112083496 0.96880567500068204 1.3750795246169611 -0.34729138209327187 -0.81049322080683261 1.0030804192688971 -0.32671048230582761 0.19761568258529588 0.58324754458067229 0.40898447955785794 -0.81208795718032711 0.10315999626173487 -0.21976667138853376 0.58834604736507623 0.077815257725771414 1.0263580609364775 -0.32675932918593403
decision_type=2 2 2 2 2 2 2 2 2 2 2 2 2 2 2 2 2 2 2 2
left_child=1 -1 3 6 5 18 13 -8 9 -6 11 12 -4 -3 -5 -13 17 -12 19 -2
right_child=4 2 10 14 8 -7 7 -9 -10 -11 16 15 -14 -15 -16 -17 -18 -19 -20 -21
leaf_value=0.075219439578989744 0.075189722682888885 -0.0277325975921652 -0.014199133671346868 -0.03293228317624624 0.063807526176307375 -0.009146012814410345 0.076976516955165081 0.016586017403313009 -0.015633683326867601 0.014060497272934395 -0.031271467410953852 -0.011300508307430769 0.014935500462772767 0.0095935278906517096 0.0041004102944526234 -0.028835876471231259 -0.021533386181017244 -0.046968467447100357 0.061228096315729098 0.080349398025412272
leaf_weight=19.427225857973099 14.319167792797087 16.739642560482025 151.98298148810863 26.347216859459877 16.617110073566437 15.000679314136503 18.814276933670044 56.242435395717621 20.542220562696457 30.630353972315788 24.770567461848259 29.68666897714138 27.610372543334961 58.518564194440842 20.426365196704865 114.6376456618309 19.438187792897224 26.346771091222763 15.294327154755591 13.539675027132036
leaf_count=72 53 45 441 71 60 44 70 176 58 95 70 88 87 181 63 321 57 70 55 51
internal_value=-0.000716721 -0.00762993 -0.0103508 0.00859687 0.0328213 0.0509649 0.0164871 0.031724 0.0172567 0.0315567 -0.0198175 -0.0166302 -0.00972003 0.0012911 -0.0167598 -0.025229 -0.0344502 -0.039362 0.0718603 0.0776974
internal_weight=736.932 610.989 591.562 197.089 125.944 58.1538 150.315 75.0567 67.7897 47.2475 394.473 323.918 179.593 75.2582 46.7736 144.324 70.5555 51.1173 43.1532 27.8588
internal_count=2228 1812 1740 606 416 203 472 246 213 155 1134 937 528 226 134 409 197 140 159 104
is_linear=0
shrinkage=0.05


Tree=14
num_leaves=20
num_cat=0
split_feature=6 13 11 16 12 8 13 5 11 7 10 10 17 17 13 12 9 4 13
split_gain=50.5381 34.6222 17.8743 16.7968 15.516 10.3946 14.4604 10.9501 13.4564 10.0216 9.99892 9.78964 8.33213 5.51357 3.96082 3.02339 2.21317 0.352638 0.266821
threshold=0.76914013486205313 -0.03290603426440724 -0.32703126669188537 -0.7204085755635371 0.6064891561826935 -0.26109134499773962 -0.30432409223393314 -0.41328575446170096 -0.3251974672423526 -1.0477137604268585 0.049629976095887506 0.1818311635029454 -0.82075667141379116 -0.83269671185057692 -0.96434075988458068 -0.33587492874897001 -0.26585520878042235 0.66960084034646949 0.015364854257438951
decision_type=2 2 2 2 2 2 2 2 2 2 2 2 2 2 2 2 2 2 2
left_child=1 5 12 -2 9 -1 -7 10 -9 -4 -8 -11 -3 -5 -15 -14 -16 -18 -17
right_child=3 2 4 13 -6 6 7 8 -10 11 -12 -13 15 14 16 18 17 -19 -20
leaf_value=-0.010635562833656445 0.01403920921927551 0.0045749726732723529 0.026216481947471289 -0.0037346913687500692 0.036102763528678306 0.055157229772271055 0.019198994103544063 -0.024551948466594888 0.027537404749073714 -0.010961192323026505 0.052879885324688937 0.013101490670925219 -0.020805532030645946 -0.012899542491088538 -0.026164103787006433 -0.048208687601306449 -0.03909899324507457 -0.046468900281793159 -0.039154859391363234
leaf_weight=22.457869291305542 22.094783455133438 17.840497210621834 28.635087311267853 14.181354209780691 30.350912600755692 33.626375541090965 89.254634723067284 26.7562595307827 23.105138435959816 174.88946396112442 29.259343072772026 55.7405004799366 23.271501526236534 15.077290743589399 21.43246428668499 18.903403803706169 22.996186837553978 55.172497943043709 14.288534641265867
leaf_count=73 73 55 78 53 78 81 241 79 61 522 74 152 85 51 83 72 72 199 46
internal_value=-0.000430768 0.00619069 -0.00333475 -0.0262394 0.00227802 0.0216344 0.0252221 0.0192437 -0.000414404 -0.00168169 0.0275143 -0.00514553 -0.0252117 -0.0331457 -0.0367827 -0.0346233 -0.0403981 -0.0443008 -0.0443112
internal_weight=739.334 588.38 363.92 150.955 289.616 224.46 202.002 168.375 49.8614 259.265 118.514 230.63 74.3039 128.86 114.678 56.4634 99.6011 78.1687 33.1919
internal_count=2228 1697 1088 531 830 609 536 455 140 752 315 674 258 458 405 203 354 271 118
is_linear=0
shrinkage=0.05


Tree=15
num_leaves=20
num_cat=0
split_feature=16 15 9 11 7 8 11 15 9 5 9 4 15 9 4 4 5 15 15
split_gain=61.6776 24.6403 17.3524 12.4287 11.9097 16.7057 14.7273 11.7481 10.811 9.85737 10.4123 8.98441 6.52198 4.88737 3.95947 3.81049 5.27363 0.218535 0.0268593
threshold=-0.019131949433253245 0.063399020438518111 -0.093764648314787036 -0.32657022341478253 0.92875551952585633 0.81669275202159697 -0.32702675709301893 -0.79661297038997658 0.15575999294089091 1.2384573197217261 0.00039791832970700007 -0.5597143023865967 -0.013838006551133949 0.017350756779502704 0.077815257725771414 0.57158488633032689 -0.56284193625178069 -0.043133659608030193 -0.07347805240409884
decision_type=2 2 2 2 2 2 2 2 2 2 2 2 2 2 2 2 2 2 2
left_child=1 2 3 17 5 6 -2 -4 11 10 -9 -8 -6 -3 -10 16 -5 18 -1
right_child=4 13 7 15 12 -7 8 9 14 -11 -12 -13 -14 -15 -16 -17 -18 -19 -20
leaf_value=-0.047660738310745125 0.059910551861742323 0.044995793780559838 -0.044881018579273971 -0.02307686067070288 -0.031104640733331523 0.064172278613222583 -0.010532713039196003 0.0046933165519140443 0.0090715239564244255 0.032121737207710159 -0.016496857481059873 0.026335608132066021 0.010451724684253566 0.0090282602785828857 -0.020013690870428195 -0.035231979069360868 0.0062126013302927869 -0.038965802702967491 -0.045278293143522629
leaf_weight=16.986127942800522 19.154088050127029 18.487493544816971 20.060374200344086 33.909987360239029 16.525400400161743 21.931503534317017 19.294419512152672 98.868567869067192 21.474382027983665 16.592867881059647 140.14724124968052 115.09470601379871 22.025631472468376 19.30971086025238 25.711097151041031 19.321191102266312 28.106482267379761 13.748659163713453 38.973418623209
leaf_count=54 49 44 67 95 62 51 54 289 62 47 454 305 67 57 69 61 93 48 176
internal_value=-0.00114161 -0.0120723 -0.0154996 -0.0291209 0.0182964 0.0227388 0.0182118 -0.00803611 0.013813 -0.00514449 -0.00773157 0.0210424 -0.00736195 0.0266208 -0.00677684 -0.0158432 -0.00980258 -0.0446138 -0.0460015
internal_weight=725.723 464.512 426.715 151.046 261.211 222.66 200.729 275.669 181.575 255.609 239.016 134.389 38.551 37.7972 47.1855 81.3377 62.0165 69.7082 55.9595
internal_count=2204 1485 1384 527 719 590 539 857 490 790 743 359 129 101 131 249 188 278 230
is_linear=0
shrinkage=0.05


Tree=16
num_leaves=19
num_cat=0
split_feature=7 9 17 3 2 17 5 10 12 5 17 14 3 16 10 12 7 8
split_gain=71.2479 50.9443 45.3585 14.3371 19.2346 20.1119 12.5674 19.9463 12.2347 8.73737 7.11513 6.38844 9.58358 5.27624 4.79587 2.06969 0.762621 0.649475
threshold=1.0642029727340476 -0.83621981004624779 -0.62472448361588429 -0.013261663315645348 0.23236748123158221 -0.78433059132223326 1.2384573197217261 0.21560475297286216 -0.27627930960236674 -0.53874477303794188 -0.71824840359023401 0.45729946177422681 0.72911663813940653 -0.19197151964615936 0.10160553615337181 -0.057923305212708796 1.2339284174810279 0.57971753580051599
decision_type=2 2 2 2 2 2 2 2 2 2 2 2 2 2 2 2 2 2
left_child=1 -1 3 8 5 -5 7 15 9 -3 -8 12 13 -4 -10 16 -2 -13
right_child=6 2 11 4 -6 -7 10 -9 14 -11 -12 17 -14 -15 -16 -17 -18 -19
leaf_value=0.071310038520614114 0.06386161802960727 0.033907072113865809 -0.031660386967413266 0.071902161438857332 -0.017806857500653198 0.0088611502174518741 -0.0076372853789458796 0.015570463217540985 -0.0079682316454543906 0.0015910774723867538 0.035662646555343021 -0.033311026350865455 0.014099599234151095 -0.016381973224869187 -0.038318364137836958 0.04991352689925202 0.078727529673085869 -0.046450104497209807
leaf_weight=20.462782353162766 13.931296736001967 28.057332783937454 76.952660754323006 27.43851900100708 17.595153868198395 23.476277381181717 20.337373688817024 30.451308622956276 36.671674892306328 82.181514278054237 17.783451572060585 18.8695417791605 21.577931821346283 212.68964418768883 20.178383126854897 13.109337851405142 22.658906906843185 18.752022117376328
leaf_count=75 50 94 212 101 49 72 59 95 107 249 60 53 68 625 53 45 85 52
internal_value=0.000703037 -0.00623652 -0.00895163 0.00799787 0.0272603 0.0428346 0.0361956 0.0474359 9.98757e-05 0.00981595 0.0125622 -0.0203989 -0.0180463 -0.0204412 -0.0187407 0.0669601 0.0730675 -0.03986
internal_weight=723.175 604.903 584.441 235.599 68.51 50.9148 118.272 80.1509 167.089 110.239 38.1208 348.842 311.22 289.642 56.8501 49.6995 36.5902 37.6216
internal_count=2204 1810 1735 725 222 173 394 275 503 343 119 1010 905 837 160 180 135 105
is_linear=0
shrinkage=0.05


Tree=17
num_leaves=25
num_cat=0
split_feature=13 5 2 7 9 2 15 11 9 9 7 12 10 13 9 12 17 2 11 12 15 0 12 10
split_gain=46.3086 29.6954 26.6999 15.8636 14.9066 15.2007 10.6458 9.0236 12.9359 9.92283 21.276 8.50064 8.35935 10.2799 7.60549 7.49205 7.40153 6.80371 4.42059 2.81683 1.49885 1.27993 0.277039 0.00739789
threshold=-0.03290603426440724 0.78901496067007226 0.16928050784173068 -0.62219520694114105 -0.45123314514667379 -0.85328285260681214 0.10192778068173246 -0.3256399453068432 -0.025323359618968099 -0.052049050008483595 1.1165402343242048 -0.36382478643023081 0.040692441083621959 -0.18446962816010207 -0.097480742967194584 -0.41419347089636399 -0.51511381342662965 -0.34496337639419389 -0.23237818452804329 0.011047572709137752 -0.047188837842169942 -0.29655879540182467 -0.41476706123252449 -0.15094764247219242
decision_type=2 2 2 2 2 2 2 2 2 2 2 2 2 2 2 2 2 2 2 2 2 2 2 2
left_child=3 2 4 12 20 -6 -7 8 -5 15 18 -4 13 -1 -15 -9 -16 -10 -11 21 -2 22 -3 -24
right_child=1 19 11 7 5 6 -8 9 17 10 -12 -13 -14 14 16 -17 -18 -19 -20 -21 -22 -23 23 -25
leaf_value=0.054643664370697537 -0.047703741183558142 -0.03741891401181293 0.0081844271631945995 0.02706777575262849 0.038260168594453921 -0.0019847858236683937 -0.02646192510192142 -0.028453612276936886 -0.0008542206504401819 0.025818699710852978 -0.022355424578291559 0.050131780226892055 0.055380570576500365 0.038550362025971605 0.024072525318717949 0.013797496816437367 -0.019936570086107861 -0.043511054714393302 0.054580135147711151 -0.020210130238044341 -0.02652397975252423 -0.027448265507912423 -0.044586502528718437 -0.046038039646596099
leaf_weight=19.665991827845573 20.594917207956314 14.710433214902876 21.6886887550354 16.846603617072105 19.485298588871956 194.42205280065536 57.577423617243767 17.920834243297577 16.177565157413483 23.860944628715515 16.882707685232162 27.254994437098503 27.826292172074318 19.139030531048775 17.461964219808578 25.31111478805542 21.095745608210564 22.141912937164307 30.35633496940136 26.448840454220772 14.053286299109457 16.977576494216919 13.856455609202383 23.950006499886513
leaf_count=47 90 56 64 46 50 592 171 61 48 66 63 67 69 48 51 65 57 66 77 90 42 57 61 100
internal_value=0.000441053 -0.00941588 -0.00274684 0.0166255 -0.00822907 -0.00428748 -0.00757738 0.0071598 -0.00944851 0.0151734 0.0266595 0.0315434 0.0318783 0.0234249 0.012784 -0.00371675 -5.78963e-06 -0.0255024 0.0419223 -0.0340973 -0.0391132 -0.0393826 -0.0432408 -0.045506
internal_weight=725.707 451.02 355.077 274.687 306.133 271.485 251.999 169.498 55.1661 114.332 71.1 48.9437 105.189 77.3627 57.6967 43.2319 38.5577 38.3195 54.2173 95.9433 34.6482 69.4945 52.5169 37.8065
internal_count=2204 1440 1076 764 945 813 763 492 160 332 206 131 272 203 156 126 108 114 143 364 132 274 217 161
is_linear=0
shrinkage=0.05


Tree=18
num_leaves=25
num_cat=0
split_feature=15 16 9 7 12 11 11 17 10 17 0 10 12 13 9 2 1 7 11 9 17 11 11 0
split_gain=56.1465 16.4433 15.4738 12.082 11.8732 11.805 11.2229 9.73897 7.96173 10.4959 15.578 8.31988 6.47791 6.08964 4.91526 6.47039 4.67822 4.65809 14.522 4.42587 3.66713 3.64125 0.843393 0.104354
threshold=-0.014952723168997499 -0.019131949433253245 -0.093764648314787036 0.92875551952585633 -0.13646301886860515 -0.32673313746679278 -0.26373520669875011 -0.72396659332806845 -0.089667104475475143 -0.71906465811300679 -0.016363019906065597 0.25434582539749812 -0.057456821750823096 -0.13356723944823559 -0.14207780291122293 -0.61679510944601146 0.026772561438895951 -0.61980523513838703 -0.32590359649288453 0.026601472570657352 0.84554173930991527 0.47985844121106186 -0.32657022341478253 -0.25477463420075269
decision_type=2 2 2 2 2 2 2 2 2 2 2 2 2 2 2 2 2 2 2 2 2 2 2 2
left_child=1 2 6 17 5 7 22 -4 14 -10 11 16 -6 -14 -2 -16 -11 -3 -19 -7 -8 -12 23 -1
right_child=8 3 4 -5 12 19 20 -9 9 10 21 -13 13 -15 15 -17 -18 18 -20 -21 -22 -23 -24 -25
leaf_value=-0.04544815400948285 0.049783400208577147 0.0017093664778952541 -0.017190631662098083 -0.030344415617698229 0.027453451468284457 -0.015786455983060835 -0.00086802773028924341 0.017123617250074146 0.036483464651405964 -0.032602471715008539 0.039898747306819651 0.011721482933897156 -0.023718260400200555 0.007756749779511735 -0.00040963267260983144 0.034939791115275287 -0.0014275465659076266 0.062259277924823497 0.0029145648395230736 -0.042689674286834796 -0.026637979991748828 0.012543662706318584 -0.031500492242727891 -0.04049083591250676
leaf_weight=47.913187980651855 24.212896749377251 28.278898477554321 58.762408956885338 16.299409613013268 24.889845699071884 24.02454400062561 31.099014848470688 31.904645979404449 34.407282784581184 30.738223105669022 27.541178584098816 33.554693326354027 22.461227998137474 48.657769903540611 19.593805998563766 38.149358496069908 19.776480302214622 17.81775575876236 24.460828542709351 42.034894332289696 24.825162917375565 21.789703369140625 16.11392542719841 13.637372195720671
leaf_count=202 60 73 199 62 67 75 98 93 95 99 65 96 61 145 52 95 57 47 66 156 71 56 56 58
internal_value=-0.00107909 -0.0112026 -0.0156221 0.00845478 -0.00834692 -0.0168291 -0.029386 -0.00511586 0.0181 0.0118613 0.00551062 -0.00757782 0.00549946 -0.00218388 0.0308739 0.0229448 -0.0203975 0.0174177 0.0279246 -0.0329055 -0.0123075 0.0278159 -0.0416838 -0.0443498
internal_weight=722.945 473.181 386.324 86.8569 252.735 156.726 133.589 90.6671 249.764 167.808 133.4 84.0694 96.0088 71.119 81.9561 57.7432 50.5147 70.5575 42.2786 66.0594 55.9242 49.3309 77.6645 61.5506
internal_count=2204 1529 1281 248 796 523 485 292 675 468 373 252 273 206 207 147 156 186 113 231 169 121 316 260
is_linear=0
shrinkage=0.05


Tree=19
num_leaves=26
num_cat=0
split_feature=0 4 9 17 2 7 0 11 6 4 17 10 4 9 7 15 17 12 14 11 11 13 12 14 7
split_gain=88.1243 43.7997 26.3748 23.4828 13.5379 21.4837 11.7847 13.0082 11.5019 13.6212 8.112 8.11003 6.81549 5.94712 4.15433 2.90412 2.9056 3.49317 3.12368 2.75184 1.77705 1.31838 1.16309 1.0149 0.719817
threshold=-0.14040191611048228 0.40898447955785794 -0.83621981004624779 -0.61682475106411505 0.23236748123158221 1.0642029727340476 -0.33929023049028501 -0.32673313746679278 1.3113327496878406 0.96880567500068204 -0.71824840359023401 0.04428546749520821 -0.34398811318388522 0.44887134043688842 -0.71701807608226775 0.42347300735648413 0.73396590215647961 0.55176814291193044 0.013364877488766152 -0.16676493809188717 0.52341477400915892 -0.068485566628060143 -0.054319260045389443 0.010777891962399052 -0.43329490845861529
decision_type=2 2 2 2 2 2 2 2 2 2 2 2 2 2 2 2 2 2 2 2 2 2 2 2 2
left_child=1 2 -1 6 -3 13 7 -4 9 -7 -10 -8 14 -6 -5 16 17 18 -2 -14 22 -22 23 -18 -19
right_child=15 4 3 12 5 8 11 -9 10 -11 -12 -13 19 -15 -16 -17 20 24 -20 -21 21 -23 -24 -25 -26
leaf_value=0.067345374613164449 0.0032960687496352533 0.070308877778645737 0.011931500806465045 -0.020876834518681681 -0.022125800805220707 0.069558481852232498 0.01063280786821595 0.057279260142977295 -0.0041220280914087788 0.025851611923254469 0.043166357125479039 -0.019299115983474325 -0.023071755938905647 0.017125577902683382 0.011494617957757747 -0.04047224838994929 -0.043831090445729456 -0.02048190156146884 -0.022411612469001304 -0.04522792826967427 -0.028931823630502052 -0.0092112558968477625 -0.024241456987912836 -0.02944763278091066 -0.034436020212353959
leaf_weight=14.607400476932524 27.897022172808647 21.233101338148117 91.748800054192543 18.143396407365799 21.228708416223526 40.959701538085938 44.568084746599197 19.107637748122215 21.030100449919701 31.562543839216232 15.9451617449522 45.975604683160782 52.924207255244255 17.69328048825264 21.842818349599838 28.332871988415718 27.837657585740089 17.212833657860756 20.498993635177612 19.062008157372475 17.316870450973511 16.598482489585876 24.809266701340675 21.922216802835464 19.95703549683094
leaf_count=53 88 78 287 51 58 150 137 69 62 100 54 130 154 56 68 81 75 49 60 50 50 52 73 64 55
internal_value=0.000647853 0.0123413 0.00167272 -0.00138852 0.0329663 0.0276241 0.00881711 0.0197478 0.0389657 0.0505367 0.0162706 -0.0045658 -0.019745 -0.00428279 -0.00319365 -0.0255189 -0.0233356 -0.0164465 -0.00759288 -0.0289387 -0.0287693 -0.0192804 -0.0330851 -0.0374943 -0.0279741
internal_weight=720.016 497.633 327.98 313.373 169.653 148.419 201.4 110.856 109.498 72.5222 36.9753 90.5437 111.972 38.922 39.9862 222.383 194.05 85.5659 48.396 71.9862 108.484 33.9154 74.5691 49.7599 37.1699
internal_count=2204 1557 999 946 558 480 623 356 366 250 116 267 323 114 119 647 566 252 148 204 314 102 212 139 104
is_linear=0
shrinkage=0.05


Tree=20
num_leaves=24
num_cat=0
split_feature=13 5 2 7 9 2 15 11 9 4 9 10 13 12 2 9 17 11 12 15 0 12 4
split_gain=41.8125 27.879 24.3674 14.4702 13.9121 13.789 10.0292 8.47107 11.8487 11.4127 19.3204 7.79864 9.29124 7.71414 7.33952 6.82069 6.97597 4.44344 2.754 1.47676 1.27087 0.270003 0.00857402
threshold=-0.03290603426440724 0.78901496067007226 0.16928050784173068 -0.62219520694114105 -0.45123314514667379 -0.85328285260681214 0.10192778068173246 -0.3256399453068432 -0.025323359618968099 0.91146120261831109 -0.079156311860920786 0.040692441083621959 -0.18446962816010207 -0.36382478643023081 -0.3478603174935731 -0.097480742967194584 -0.51511381342662965 -0.23237818452804329 0.011047572709137752 -0.046465001704971538 -0.29655879540182467 -0.41476706123252449 0.96880567500068204
decision_type=2 2 2 2 2 2 2 2 2 2 2 2 2 2 2 2 2 2 2 2 2 2 2
left_child=3 2 4 11 19 -6 -7 8 -5 10 -9 12 -1 -4 -10 -14 -17 -12 20 -2 21 -3 -23
right_child=1 18 13 7 5 6 -8 9 14 -11 17 -13 15 -15 -16 16 -18 -19 -20 -21 -22 22 -24
leaf_value=0.051530327082903997 -0.046682062138307633 -0.036672210007910558 0.0077221928130156402 0.025199991594175016 0.036171053171539812 -0.0018351362151678237 -0.025703333652367495 -0.0080815807298769034 0.0017595656527235094 -0.018455305985566627 0.023280697526536331 0.05277774030229572 0.036168394853533951 0.04751157505896484 -0.043035791941455626 0.023057191269246123 -0.019620112480349866 0.050962815645278131 -0.019437220433231331 -0.025388284627544628 -0.026566118684636927 -0.044152216860725242 -0.045726703587563609
leaf_weight=19.930778533220291 20.18725597858429 14.399384588003157 21.771403968334198 17.049297139048576 19.72077801823616 193.98673775792122 56.927394941449165 33.967138171195984 15.324622482061384 21.452564775943756 25.198745161294937 28.170575007796288 19.370524346828461 27.653839588165283 22.672939866781235 17.57829712331295 21.031601473689079 34.13204163312912 26.081644207239151 13.646263256669043 16.652650818228722 22.659940704703331 13.981841236352919
leaf_count=47 91 56 64 46 50 592 171 98 45 79 69 69 48 67 69 51 57 86 90 41 57 106 55
internal_value=0.000433502 -0.00900212 -0.00257911 0.0157447 -0.00786529 -0.0040863 -0.00725035 0.00669355 -0.00943089 0.0144286 0.0219898 0.0302322 0.0220803 0.0299847 -0.0249696 0.0119569 -0.000190009 0.0392058 -0.0332415 -0.0380935 -0.0385601 -0.0424733 -0.044753
internal_weight=723.548 447.669 353.894 275.879 304.468 270.635 250.914 169.797 55.0469 114.75 93.2979 106.082 77.9112 49.4252 37.9976 57.9804 38.6099 59.3308 93.7755 33.8335 67.6938 51.0412 36.6418
internal_count=2204 1440 1076 764 945 813 763 492 160 332 253 272 203 131 114 156 108 155 364 132 274 217 161
is_linear=0
shrinkage=0.05


Tree=21
num_leaves=19
num_cat=0
split_feature=16 15 9 11 1 15 6 9 4 4 4 11 9 9 5 8 11 2
split_gain=51.6534 20.7588 15.8449 11.633 10.982 10.6659 11.4049 9.80179 8.6371 8.77808 9.38502 9.08164 4.22509 3.76948 3.04116 2.57854 0.192084 0.0260645
threshold=-0.019131949433253245 0.063399020438518111 -0.093764648314787036 -0.32657022341478253 1.4183106213790238 -0.79661297038997658 1.364230080161297 0.019833518149383753 -0.65761867306071986 -0.39190802603081354 -0.34398811318388522 -0.32679905482390076 0.017350756779502704 -0.47229649843434424 0.57932262716679706 -0.10204135859295584 -0.32708478066027241 0.12728648058048411
decision_type=2 2 2 2 2 2 2 2 2 2 2 2 2 2 2 2 2 2
left_child=1 2 3 16 8 -4 7 -7 -2 -10 -11 -12 -3 -5 -6 -15 -1 -18
right_child=4 12 5 13 14 6 -8 -9 9 10 11 -13 -14 15 -16 -17 17 -19
leaf_value=-0.039141933082521577 -0.01040557822546543 0.04092258001130121 -0.043302573159206534 0.0034348308007909837 0.0039985093523667876 0.0011846642065967794 0.03583223462185376 -0.019471039866618006 0.047221214698239422 -0.0075087584886301718 0.052514468394911862 0.018751528630689906 0.0077137733864676046 -0.031896740299786015 -0.02580378567074006 -0.011032472983038666 -0.046205205307215065 -0.043825087037688636
leaf_weight=20.030879616737366 20.457437321543694 18.836907833814621 19.111050888895988 20.796458095312119 18.652306854724884 138.95332591235638 16.34341162443161 97.897408112883568 33.179416701197624 27.737254127860069 23.746712803840637 123.49835130572319 19.485618531703949 29.178169950842857 15.820760339498518 30.068787723779678 22.86676874756813 23.144926473498344
leaf_count=88 57 44 67 68 50 421 47 322 83 78 63 335 57 92 53 89 80 110
internal_value=-0.00101896 -0.0111848 -0.014411 -0.0276955 0.0166284 -0.00728406 -0.00456539 -0.00735295 0.0205952 0.0236419 0.0191708 0.0241966 0.0240371 -0.0148793 -0.00967869 -0.0213078 -0.0432288 -0.045008
internal_weight=719.806 456.714 418.391 146.086 263.092 272.305 253.194 236.851 228.619 208.162 174.982 147.245 38.3225 80.0434 34.4731 59.247 66.0426 46.0117
internal_count=2204 1485 1384 527 719 857 790 743 616 559 476 398 101 249 103 181 278 190
is_linear=0
shrinkage=0.05


Tree=22
num_leaves=26
num_cat=0
split_feature=0 4 6 17 6 7 3 17 6 4 15 17 10 4 7 15 17 12 14 4 11 3 12 14 17
split_gain=80.9567 39.156 21.0507 21.2915 11.806 16.5696 11.2063 20.6108 10.5573 12.6979 9.21331 7.50616 6.34787 6.09889 3.75267 2.77636 2.84012 3.3639 3.01212 2.4779 1.74528 1.6152 1.13998 1.00259 0.708661
threshold=-0.14040191611048228 0.40898447955785794 -1.0797313050777511 -0.61682475106411505 0.4464378480364426 1.0642029727340476 -0.013261663315645348 -0.79114206051165781 1.3113327496878406 0.96880567500068204 0.090105280091982265 -0.71824840359023401 -0.053714069558958098 -0.34398811318388522 -0.71217746099912316 0.42347300735648413 0.73396590215647961 0.55176814291193044 0.013364877488766152 -0.12485251666988144 0.52341477400915892 -0.52755001479091101 -0.054319260045389443 0.010777891962399052 -0.60307116636081226
decision_type=2 2 2 2 2 2 2 2 2 2 2 2 2 2 2 2 2 2 2 2 2 2 2 2 2
left_child=1 2 -1 6 -3 12 10 -8 9 -7 -4 -10 -6 14 -5 16 17 18 -2 -15 22 -22 23 -18 -19
right_child=15 4 3 13 5 8 7 -9 11 -11 -12 -13 -14 19 -16 -17 20 24 -20 -21 21 -23 -24 -25 -26
leaf_value=0.060482882754528948 0.0036146912471605266 0.068981335273631206 -0.0020998618658883582 -0.018404299922403264 -0.021918270157380751 0.066212322110677568 0.066539069044431576 0.00033239223930302351 -0.0045274474977872224 0.024120620640490101 0.038362345242888347 0.040803068285884342 0.017306558890254991 -0.04063024567361978 0.012690064298430562 -0.039600134469545745 -0.043156513794522303 -0.019720460148495739 -0.021737239518587796 -0.020856638433553117 -0.029879035561068919 -0.0079024293135629056 -0.023552796461339759 -0.028723950897019859 -0.03367099958197619
leaf_weight=14.515343591570852 27.787355035543442 18.430203586816788 138.24383789300919 19.220541000366211 18.651037767529488 41.055548548698425 21.170573085546494 26.43177592754364 21.08815623819828 31.792644307017326 15.662756159901617 16.107610151171684 23.076005816459656 23.467540115118027 19.596126347780228 27.515302628278732 27.22510826587677 16.991177216172218 20.2577815502882 48.767833858728409 16.260672390460968 17.209185853600502 24.46714361011982 21.563949063420296 19.60909628868103
leaf_count=52 88 68 413 55 51 150 77 79 62 100 54 54 73 64 61 81 75 49 60 144 48 54 73 64 55
internal_value=0.000589069 0.0117423 0.00162122 -0.00111232 0.031192 0.0266031 0.00857542 0.029777 0.0367763 0.0478425 0.00201789 0.0151029 -0.000226046 -0.0186911 -0.00270669 -0.0247494 -0.0226141 -0.0157745 -0.00707471 -0.0272806 -0.0280387 -0.0185793 -0.0323606 -0.0367776 -0.0271947
internal_weight=716.164 497.278 327.076 312.561 170.201 151.771 201.509 47.6023 110.044 72.8482 153.907 37.1958 41.727 111.052 38.8167 218.887 191.371 84.6454 48.0451 72.2354 106.726 33.4699 73.2562 48.7891 36.6003
internal_count=2204 1557 999 947 558 490 623 156 366 250 467 116 124 324 116 647 566 252 148 208 314 102 212 139 104
is_linear=0
shrinkage=0.05


Tree=23
num_leaves=20
num_cat=0
split_feature=6 13 16 3 8 0 11 1 0 15 16 13 17 12 0 7 5 13 13
split_gain=38.7961 27.0746 21.5927 17.7695 13.5673 12.8957 12.6362 9.2835 8.91436 9.46319 7.83542 6.40147 5.27086 3.91463 3.47394 1.88819 0.586617 0.912964 0.0417673
threshold=0.76914013486205313 -0.03290603426440724 -0.7204085755635371 0.49785840842504397 -0.26109134499773962 -0.35510083576680468 -0.32703126669188537 -1.0342785304626019 -0.36277413984783996 0.063399020438518111 -0.067272646390248228 -0.98785578021337461 -0.82075667141379116 0.011047572709137752 -0.34436463660618644 1.2909818679421672 1.2485170202912721 0.016380022673195802 -0.027081558980597897
decision_type=2 2 2 2 2 2 2 2 2 2 2 2 2 2 2 2 2 2 2
left_child=1 4 -2 6 -1 -6 12 -7 -8 -10 -9 -4 -3 16 -14 -15 18 -18 -13
right_child=2 3 11 -5 5 7 8 10 9 -11 -12 13 14 15 -16 -17 17 -19 -20
leaf_value=-0.018333628365160788 0.025193656886410912 6.3132330731458568e-05 0.0011080641594455635 0.034678561917057947 -0.012012880721729277 0.0052598059290130689 -0.032568269344581624 0.040001099075336138 0.010585248654052656 -0.0099057469887444457 0.013945168732012472 -0.047702526615245072 -0.015063086551730354 -0.033020321191351641 -0.041365250435062687 -0.007578280328955027 -0.026011226169911545 -0.044340471293153924 -0.044263546161744327
leaf_weight=21.64576855301857 19.532544299960136 16.647662281990051 13.29182058572769 29.217138379812241 23.07734303176403 37.196042269468307 20.266555190086365 110.1856525093317 134.68965247273445 96.866482928395271 39.088495537638664 11.679560050368307 19.43269357085228 14.457241624593737 35.465082615613937 14.715376406908034 12.561934754252436 14.795018553733824 36.17669540643692
leaf_count=72 63 51 44 75 72 99 71 272 396 273 101 39 69 50 138 50 50 54 165
internal_value=0.000432157 0.00605517 -0.0234917 -0.00266414 0.0193527 0.0232456 -0.00603815 0.0276092 -0.00076982 0.00201329 0.0331782 -0.0315726 -0.0245814 -0.035734 -0.0320548 -0.0201867 -0.0417642 -0.0359239 -0.0451028
internal_weight=720.989 583.779 137.21 352.585 231.193 209.548 323.368 186.47 251.823 231.556 149.274 117.678 71.5454 104.386 54.8978 29.1726 75.2132 27.357 47.8563
internal_count=2204 1689 515 1073 616 544 998 472 740 669 373 452 258 408 207 100 308 104 204
is_linear=0
shrinkage=0.05


Tree=24
num_leaves=17
num_cat=0
split_feature=16 15 6 1 17 5 15 4 4 4 11 4 5 12 11 1
split_gain=46.7808 19.0127 12.9027 10.1246 10.0723 11.3884 9.07319 8.03684 8.01728 8.49786 8.4471 6.96736 7.23037 3.60379 3.48622 2.01784
threshold=-0.019131949433253245 0.063399020438518111 1.3890900222065208 1.4183106213790238 -0.72113113487969016 -0.95813461001929257 -0.79661297038997658 -0.65761867306071986 -0.39190802603081354 -0.34398811318388522 -0.32676417162775134 -0.32796636755788733 -0.5495699303349193 -0.40770022570406078 -0.16468145291800573 -0.7772962647278131
decision_type=2 2 2 2 2 2 2 2 2 2 2 2 2 2 2 2
left_child=1 2 4 7 11 -6 -7 -2 -9 -10 -11 12 -1 -5 -3 -13
right_child=3 14 -4 13 5 6 -8 8 9 10 -12 15 -14 -15 -16 -17
leaf_value=-0.036978827348047673 -0.01037037966691165 0.0070292660684905077 0.028751475134748947 -0.02611480773480614 -0.045233482803560543 -0.035990110345545008 -0.0032463158144342939 0.044888414734505458 -0.0072390989387830498 0.048420835493361923 0.017352416783798171 -0.043675333966138784 0.0028528407122270262 0.0062679776387472548 0.037157148503732806 -0.02854602661937616
leaf_weight=17.614790827035904 20.450859546661377 18.248584970831871 17.044335812330246 16.790312573313713 20.71322725713253 23.529035404324532 209.8051320463419 33.49627573788166 27.666393265128136 26.684453129768372 121.46468965709209 35.864299803972244 32.256320133805275 17.594662576913834 20.264547646045685 57.170607522130013
leaf_count=60 57 49 50 54 85 80 618 83 78 70 328 152 104 49 52 235
internal_value=-0.00096063 -0.0107208 -0.0138467 0.0157595 -0.0156758 -0.00970228 -0.00654815 0.0195463 0.0224694 0.0181981 0.0229484 -0.0262951 -0.011216 -0.00954466 0.0228817 -0.0343783
internal_weight=716.659 452.511 413.998 264.148 396.953 254.047 233.334 229.763 209.312 175.816 148.149 142.906 49.8711 34.385 38.5131 93.0349
internal_count=2204 1485 1384 719 1334 783 698 616 559 476 398 551 164 103 101 387
is_linear=0
shrinkage=0.05


Tree=25
num_leaves=26
num_cat=0
split_feature=0 4 5 17 5 5 2 0 11 17 10 4 10 10 17 15 17 12 14 11 11 13 12 14 14
split_gain=74.4508 35.5696 23.4417 20.8068 12.5145 17.5103 15.746 10.5413 11.3373 9.43694 7.37858 6.22004 5.95137 4.36104 3.37948 2.74018 2.71628 3.21282 2.84176 1.73124 1.34334 1.30272 1.11554 0.988084 0.692598
threshold=-0.14040191611048228 0.40898447955785794 -1.0855328795337438 -0.61682475106411505 0.25356851025227573 0.79258635826483037 1.11749901965153 -0.33929023049028501 -0.32673313746679278 -0.45511287389198951 0.04428546749520821 -0.074219831699665437 0.042367433890704756 0.31049335290504404 -0.71824840359023401 0.42347300735648413 0.73396590215647961 0.55176814291193044 0.013364877488766152 0.52341477400915892 -0.16676493809188717 -0.068485566628060143 -0.054319260045389443 0.010777891962399052 -0.0064529422916894492
decision_type=2 2 2 2 2 2 2 2 2 2 2 2 2 2 2 2 2 2 2 2 2 2 2 2 2
left_child=1 2 -1 7 -3 9 13 8 -4 -6 -9 12 -5 -7 -8 16 17 18 -2 22 -13 -21 23 -18 -19
right_child=15 4 3 11 5 6 14 10 -10 -11 -12 20 -14 -15 -16 -17 19 24 -20 21 -22 -23 -24 -25 -26
leaf_value=0.064343746865881263 0.0036945379198151185 0.066241097327222956 0.011161378177130352 0.0020821998636125177 -0.028690100132495535 0.059186986694123811 -0.00099736360410504965 0.0099117920221339622 0.053180791239590519 0.019025012294715607 -0.018698940669692878 -0.026048057034277657 -0.028133879826513088 0.027849989945981868 0.026072410765337659 -0.038941659780606805 -0.042448087071812239 -0.019629099251408863 -0.021026699720294594 -0.027536172129206279 -0.044150327023201187 -0.0076489449559642882 -0.022825999412483575 -0.027968529818945771 -0.033492407728615343
leaf_weight=14.201685428619383 27.755119308829308 20.606274038553238 92.052766382694244 42.236257821321487 19.112108990550041 47.266777545213699 21.912083134055138 44.722822323441505 19.443356454372406 22.634593576192856 45.422098755836487 23.084059864282608 26.53332693874836 14.510746538639067 24.333816051483154 26.869409993290901 26.546719610691071 18.3564812541008 20.002656027674675 16.736446440219879 18.431408151984215 16.210471779108047 24.104610994458199 21.184198454022408 17.692664250731468
leaf_count=52 88 76 287 131 50 170 65 137 69 72 130 68 75 47 78 81 75 53 60 50 50 52 73 64 51
internal_value=0.000541412 0.0111926 0.00151961 -0.00134071 0.0297081 0.0246817 0.0353098 0.00820957 0.018489 -0.0028195 -0.00450454 -0.0188021 -0.00957605 0.0518263 0.0132463 -0.0240031 -0.0218748 -0.0151651 -0.0066596 -0.0272413 -0.0340848 -0.0177513 -0.0315938 -0.0360217 -0.0264331
internal_weight=711.963 496.504 326.128 311.926 170.376 149.77 108.023 201.641 111.496 41.7467 90.1449 110.285 68.7696 61.7775 46.2459 215.459 188.589 83.8069 47.7578 104.782 41.5155 32.9469 71.8355 47.7309 36.0491
internal_count=2204 1557 999 947 558 482 360 623 356 122 267 324 206 217 143 647 566 252 148 314 118 102 212 139 104
is_linear=0
shrinkage=0.05


Tree=26
num_leaves=20
num_cat=0
split_feature=6 13 16 2 8 9 2 0 9 1 5 14 13 4 7 13 9 7 8
split_gain=35.6884 24.1209 20.5588 19.4002 12.4389 12.4071 12.3129 11.8379 9.53254 8.46066 7.90782 6.93774 6.13575 3.29491 3.6931 1.98003 0.472822 0.0329611 0.00979839
threshold=0.76914013486205313 -0.03290603426440724 -0.7204085755635371 0.16928050784173068 -0.26109134499773962 -0.45123314514667379 -0.85328285260681214 -0.35510083576680468 -0.093764648314787036 -1.0342785304626019 0.47643309872453071 0.00042334076981920005 -0.98785578021337461 1.0043836925195861 1.4091119761403055 0.016969902059276901 0.61956650929293899 1.0642029727340476 -0.069243467792210786
decision_type=2 2 2 2 2 2 2 2 2 2 2 2 2 2 2 2 2 2 2
left_child=1 4 -2 5 -1 15 -7 -6 -8 -9 -5 -11 -4 16 -15 18 17 -14 -3
right_child=2 3 12 10 7 6 8 9 -10 11 -12 -13 13 14 -16 -17 -18 -19 -20
leaf_value=-0.017932056875657101 0.024547399225227085 -0.046247462851193195 0.0011493196122909508 0.047107697539980078 -0.011860494729137167 0.034057251561211213 0.009156644199762318 0.0048059125004946456 -0.012780918013624732 0.037789336467995586 0.0072598741198019777 0.013331910652370306 -0.046287665186823028 -0.00031200098323608982 -0.035224160385493315 -0.018981678845199919 -0.035628321605448501 -0.043294999932932322 -0.044114664517755822
leaf_weight=21.517515480518341 19.617699056863785 11.421588465571402 13.274156510829924 23.953850239515305 23.022993519902229 19.93938484787941 68.181896284222603 37.284873157739639 180.90993079543114 111.2079853862524 25.926201686263084 39.222653225064278 12.992070674896238 12.381937593221666 19.511519059538841 10.748373523354529 25.485663816332817 31.529699236154556 10.189165130257608
leaf_count=72 63 51 44 61 72 50 202 99 561 272 67 101 39 46 80 30 93 150 51
internal_value=0.000421788 0.00577825 -0.0227667 -0.00248782 0.0182801 -0.00726808 -0.00374974 0.0219775 -0.00677613 0.0261277 0.026396 0.0314124 -0.0308257 -0.0349909 -0.0216703 -0.0365193 -0.0410594 -0.0441683 -0.0452419
internal_weight=718.319 583.526 134.793 351.27 232.256 301.39 269.031 210.739 249.092 187.716 49.8801 150.431 115.175 101.901 31.8935 32.3591 70.0074 44.5218 21.6108
internal_count=2204 1689 515 1073 616 945 813 544 763 472 128 373 452 408 126 132 282 189 102
is_linear=0
shrinkage=0.05


Tree=27
num_leaves=24
num_cat=0
split_feature=15 14 9 11 7 8 12 11 7 17 9 17 17 12 0 14 11 9 12 9 17 13 0
split_gain=43.1283 11.8837 13.2999 10.6028 10.3828 10.3723 9.22984 10.6087 9.37227 8.06321 10.002 16.3648 7.62448 6.4826 7.01471 6.01388 5.60708 5.10667 7.1994 4.03315 3.83946 0.814672 0.116474
threshold=-0.014952723168997499 0.043164621836106205 -0.093764648314787036 -0.26373520669875011 0.92875551952585633 0.57971753580051599 -0.13646301886860515 -0.32673313746679278 -0.61980523513838703 -0.71906465811300679 -0.021756423718606598 -0.53746003500983253 0.71340388831783963 -0.053482963253219891 -0.2556030168607592 0.26833055478141926 0.51202063248931229 -0.0010340362014265498 -0.26703623385558067 0.026601472570657352 0.84554173930991527 -0.041375628325645945 -0.25477463420075269
decision_type=2 2 2 2 2 2 2 2 2 2 2 2 2 2 2 2 2 2 2 2 2 2 2
left_child=1 2 3 21 17 9 7 8 -4 -2 11 -11 15 -8 -15 -12 -13 -3 -19 -9 -5 -1 -23
right_child=5 4 6 20 -6 -7 13 19 -10 10 12 16 -14 14 -16 -17 -18 18 -20 -21 -22 22 -24
leaf_value=-0.028771450326313376 0.034066657134370203 0.032680968344365562 -0.02322124968295711 0.0013839475807181584 -0.030119014127586354 0.042949166444865759 0.024001648708320066 -0.014525022805777799 0.0098061707333490372 -0.024879719763205688 0.0121018494585141 0.040629447140738677 -0.033214318229951231 0.019039016353261308 -0.015914656860943937 -0.02013623781341594 0.0138387508435329 -0.011522317939836312 0.026974546188899148 -0.040866289722745391 -0.025355487987716148 -0.043435317668838985 -0.037720205789686455
leaf_weight=13.633149802684782 34.747764363884926 24.76261630654335 36.504081189632416 30.220821723341942 16.127495422959328 30.738557204604149 30.625975102186203 23.514364048838615 52.190430954098701 17.397306829690933 51.995778799057007 43.805560499429703 18.041849717497826 21.794432908296585 42.043117716908455 20.042460039258003 35.243095636367798 28.496065855026245 21.16487917304039 38.039036944508553 24.154826179146767 47.078720942139626 10.99748934805393
leaf_count=43 95 63 117 98 62 76 82 75 174 51 148 105 47 68 121 57 96 81 50 151 71 219 54
internal_value=-0.000900651 -0.00998709 -0.0139527 -0.0271451 0.00625166 0.0157335 -0.00715547 -0.0148551 -0.00378695 0.0119528 0.00783319 0.0190228 -0.00414722 0.00509103 -0.00398131 0.00313258 0.0286851 0.0141331 0.00488457 -0.0308035 -0.0104943 -0.039771 -0.0423531
internal_weight=713.36 461.348 370.796 126.085 90.5511 252.012 244.711 150.248 88.6945 221.274 186.526 96.446 90.0801 94.4635 63.8376 72.0382 79.0487 74.4236 49.6609 61.5534 54.3756 71.7094 58.0762
internal_count=2204 1529 1273 485 256 675 788 517 291 599 504 252 252 271 189 205 201 194 131 226 169 316 273
is_linear=0
shrinkage=0.05


Tree=28
num_leaves=17
num_cat=0
split_feature=7 9 17 3 10 10 5 10 15 10 14 3 17 16 9 8
split_gain=48.033 33.6238 33.9861 10.3814 16.9904 21.3565 8.91646 14.9337 8.4117 10.5645 5.7729 7.59539 5.75167 5.09048 1.66869 0.739771
threshold=1.0642029727340476 -0.83621981004624779 -0.61682475106411505 -0.013261663315645348 -0.16560741527850484 0.3299344006345527 1.2384573197217261 0.21560475297286216 0.090105280091982265 0.046133581945367305 0.45729946177422681 0.72911663813940653 -0.7077087640693327 -0.19197151964615936 -0.13998825821849689 0.57971753580051599
decision_type=2 2 2 2 2 2 2 2 2 2 2 2 2 2 2 2
left_child=1 -1 3 8 -5 -6 7 14 9 -3 11 13 -8 -4 -2 -12
right_child=6 2 10 4 5 -7 12 -9 -10 -11 15 -13 -14 -15 -16 -17
leaf_value=0.057718470686511807 0.046062197907007406 0.006921514786701416 -0.029375050934231563 -0.014612882763930836 0.062705618533332674 -0.0082008507248910179 -0.0076899519282818702 0.011393369578600661 0.032962304641606648 -0.020132085243228539 -0.030030215811921203 0.012658242720627228 0.031123849821654656 -0.013932838245709876 0.064330489716481684 -0.044640981431432358
leaf_weight=20.374563366174698 23.821175932884216 91.782530501484871 72.684117659926414 20.844913691282272 32.340538889169693 15.81108647584915 21.404050901532173 30.761177465319633 17.434323683381081 59.466551318764687 17.300466299057007 21.75699982047081 17.226459205150604 200.81442460417747 26.302708074450493 17.353467106819153
leaf_count=75 83 281 212 58 118 47 62 95 59 170 53 68 57 617 97 52
internal_value=0.000483334 -0.00539047 -0.00765587 0.00675879 0.0230978 0.0394227 0.0293799 0.038818 7.56681e-05 -0.00371514 -0.0180408 -0.0157748 0.00961824 -0.0180367 0.0556486 -0.0373468
internal_weight=707.48 587.964 567.589 237.68 68.9965 48.1516 119.516 80.8851 168.683 151.249 329.909 295.256 38.6305 273.499 50.1239 34.6539
internal_count=2204 1810 1735 733 223 165 394 275 510 451 1002 897 119 829 180 105
is_linear=0
shrinkage=0.05


Tree=29
num_leaves=22
num_cat=0
split_feature=6 13 16 11 8 12 0 1 16 7 14 14 11 13 12 0 7 15 5 13 13
split_gain=32.9585 21.8529 19.2496 15.9438 11.4333 11.0609 10.7424 7.7624 7.33502 12.3758 10.4846 6.27179 5.98028 5.91156 3.87393 2.66267 1.91386 0.60534 0.587084 0.924873 0.0403868
threshold=0.76914013486205313 -0.03290603426440724 -0.7204085755635371 -0.32703126669188537 -0.26109134499773962 0.6064891561826935 -0.35510083576680468 -1.0342785304626019 -0.070428029380421586 -1.0226105722702306 -0.31667373501795409 0.00042334076981920005 -0.32715226717507867 -0.98785578021337461 0.011047572709137752 -0.34436463660618644 1.2909818679421672 -0.041999836249236644 1.2485170202912721 0.016380022673195802 -0.027081558980597897
decision_type=2 2 2 2 2 2 2 2 2 2 2 2 2 2 2 2 2 2 2 2 2
left_child=1 4 -2 12 -1 8 -6 -8 10 -10 -5 -9 -3 -4 18 -14 -16 -17 20 -20 -15
right_child=2 3 13 5 6 -7 7 11 9 -11 -12 -13 15 14 16 17 -18 -19 19 -21 -22
leaf_value=-0.017457128601809011 0.023403727861908984 0.0064860222593976979 0.0013017500116436693 -0.021525993114245925 -0.011418492225951466 0.032328168715826021 0.0044350514507907604 0.035923062462439918 0.030231460284620804 -0.011187954956409068 0.02185917585685259 0.01271579982587422 -0.018103477100882611 -0.04652743794281132 -0.031755063885837903 -0.045526134375986155 -0.0057287684322276534 -0.031646496928697108 -0.024377660569246104 -0.043257103389729434 -0.043067588946851976
leaf_weight=21.362375438213348 19.777429014444351 13.317973941564558 13.244288742542265 17.958379983901978 22.895111709833145 28.805077597498894 37.346679836511612 111.95932371914387 20.488095462322235 150.59339186549187 62.009369745850563 39.343167841434479 24.057000041007996 11.232180431485174 13.96908685564995 19.7496173530817 14.288847282528875 13.04415123164654 12.092505455017092 13.994104653596876 33.864825680851936
leaf_count=72 63 40 44 58 72 73 99 272 52 457 174 101 86 39 50 86 50 47 50 54 165
internal_value=0.000420105 0.00553599 -0.0220933 -0.00236096 0.0174039 0.00298252 0.0209243 0.0248495 -0.000384567 -0.00622772 0.0121162 0.0298885 -0.0236724 -0.0300785 -0.0342579 -0.0307373 -0.0185947 -0.0400053 -0.0404758 -0.0345055 -0.0439293
internal_weight=715.393 582.93 132.463 350.023 232.907 279.854 211.544 188.649 251.049 171.081 79.9677 151.302 70.1687 112.686 99.4416 56.8508 28.2579 32.7938 71.1836 26.0866 45.097
internal_count=2204 1689 515 1073 616 814 544 472 741 509 232 373 259 452 408 219 100 133 308 104 204
is_linear=0
shrinkage=0.05


Tree=30
num_leaves=20
num_cat=0
split_feature=16 6 17 3 13 10 0 11 15 10 3 15 6 12 11 11 9 1 9
split_gain=39.6141 12.2118 18.5353 9.76774 10.7204 9.15801 10.5186 10.0092 9.51388 8.87488 7.82062 6.71725 6.38156 5.38584 3.03379 3.19915 1.91959 2.84793 0.0626828
threshold=-0.019131949433253245 1.3890900222065208 -0.75202142847872466 -0.8178857330028787 -1.1171642676669051 -0.58456948206997428 -0.085473526402759445 -0.32708564207875507 -0.023770396338649597 -0.14046598107964317 -0.43099540867934599 0.12369161931198966 0.37332038905083875 -0.40447293467182038 -0.31030449411799055 0.51737316477248552 -0.0068469559243104989 -0.68502517197763702 -0.10504708954720619
decision_type=2 2 2 2 2 2 2 2 2 2 2 2 2 2 2 2 2 2 2
left_child=1 2 10 -4 -5 -2 7 -7 13 -8 -1 -6 -10 -9 -11 -16 18 -18 -12
right_child=5 -3 3 4 11 6 9 8 12 14 16 -13 -14 -15 15 -17 17 -19 -20
leaf_value=-0.0046545831757544747 0.045191722842834341 0.028782231666797123 -0.042347634762605474 -0.044145763083668542 -0.0043098275191154455 0.037756291520099315 0.0033940053561086442 -0.039334004830186682 -0.0021889863836039676 0.019761077285249312 -0.042568215769496071 0.023587193610085509 0.025731152012327896 -0.0042263993794379329 0.055871518253490994 0.028202229322448105 -0.046578684947520266 -0.017248670643105205 -0.046543276530295011
leaf_weight=23.077715620398521 20.652852013707161 18.398970425128937 17.844672381877899 15.86572030186653 244.36170217394829 17.713887959718704 36.774129122495651 21.432489767670631 63.511201575398445 23.588425442576408 37.577861338853836 23.668229803442955 30.19650761783123 22.280917301774025 21.125803023576736 20.665951877832413 13.37288838624954 21.717243894934654 13.473315000534056
leaf_count=75 50 53 73 62 733 48 92 75 180 56 184 61 86 63 51 52 59 88 49
internal_value=-0.00154956 -0.0110701 -0.0128543 -0.00646574 -0.00421033 0.0131575 0.0105861 0.00238233 -0.00217745 0.0230446 -0.030504 -0.0018464 0.00680804 -0.0214395 0.0340973 0.0421891 -0.0374292 -0.0284264 -0.0436173
internal_weight=707.3 429.358 410.959 301.74 283.896 277.942 257.289 155.135 137.421 102.154 109.219 268.03 93.7077 43.7134 65.3802 41.7918 86.1413 35.0901 51.0512
internal_count=2190 1437 1384 929 856 753 703 452 404 251 455 794 266 138 159 103 380 147 233
is_linear=0
shrinkage=0.05


Tree=31
num_leaves=26
num_cat=0
split_feature=0 5 4 17 11 10 11 6 16 17 12 3 17 17 0 13 17 7 5 4 13 10 11 11 3
split_gain=63.14 28.4276 24.7938 14.7227 8.67076 9.06391 7.77345 8.47842 7.10696 8.35725 5.78283 5.34604 6.31774 14.4195 5.33129 4.42943 3.17399 1.99152 4.28336 2.16031 2.09842 1.3935 0.911675 0.785423 0.0668348
threshold=-0.29283396538057777 -1.0855328795337438 0.39620552010454407 -0.55981963283102243 -0.32680593957079401 0.017655064456107403 -0.32677256049018344 1.3002635408729495 1.0000000180025095e-35 -0.75202142847872466 -0.41458167481921743 1.0978540342647738 -0.52999662622112109 0.068817419857681569 -0.34743138761746906 0.42225750695703551 -0.43139551191350406 -0.71217746099912316 -0.54553446655090032 0.27760850063600689 0.12756761771959954 -0.18185822045003477 -0.32699131729328546 0.50703467137103952 0.75414913199383526
decision_type=2 2 2 2 2 2 2 2 2 2 2 2 2 2 2 2 2 2 2 2 2 2 2 2 2
left_child=2 -2 3 4 8 -6 7 22 9 -1 -5 12 -8 -14 -7 17 -12 20 -19 -20 21 -3 24 -17 -4
right_child=1 15 6 10 5 14 11 -9 -10 -11 16 -13 13 -15 -16 23 -18 18 19 -21 -22 -23 -24 -25 -26
leaf_value=0.019853447197950465 0.049371427836992381 -0.017791084787568585 0.057165482224828451 -0.037622798283925077 0.053081244850539236 0.029019389077890506 -0.0043577523788111139 0.011272760236100732 -0.019769182549096202 -0.01004317789767685 -0.01737179212568404 0.041190539220801348 0.058444840353220853 0.0013609356758982187 -0.0092209868742845601 -0.043882180646323869 0.010904502831261959 0.0054161920854992607 -0.012597879971972904 -0.025849723213545162 -0.0081561194320866181 -0.032287604722400852 0.04399477226921996 -0.029151327853574965 0.061963171089271254
leaf_weight=65.671044364571571 15.092884927988051 24.08176825940609 14.489596724510191 22.724650576710701 20.643090784549713 20.104323983192444 29.63065741956234 15.389003127813337 26.69182126224041 36.294218093156815 25.252020165324211 22.925377279520035 19.064339891076088 26.357702508568764 16.673356547951698 20.243158936500549 16.350029736757278 21.894811719655991 68.255237117409706 55.975077822804451 16.557852581143379 53.198615193367004 13.892120540142061 16.363057568669319 14.546645194292067
leaf_count=208 55 75 55 65 73 66 85 48 78 105 75 78 68 79 49 62 54 73 209 164 54 158 49 51 54
internal_value=0.00030321 -0.0174501 0.0130349 0.00328147 0.0104099 0.0265658 0.028661 0.0431144 0.00319929 0.00921184 -0.0173388 0.0200583 0.0136032 0.0253199 0.0116829 -0.0210966 -0.00625892 -0.0186252 -0.014975 -0.0185688 -0.0243093 -0.0277703 0.054529 -0.0372975 0.059569
internal_weight=698.362 291.662 406.7 250.405 186.078 57.4208 156.295 58.3174 128.657 101.965 64.3267 97.9781 75.0527 45.422 36.7777 276.57 41.602 239.963 146.125 124.23 93.8382 77.2804 42.9284 36.6062 29.0362
internal_count=2190 901 1289 773 579 188 516 206 391 313 194 310 232 147 115 846 129 733 446 373 287 233 158 113 109
is_linear=0
shrinkage=0.05


Tree=32
num_leaves=25
num_cat=0
split_feature=6 13 13 11 12 0 14 8 16 17 16 14 8 4 6 17 0 15 7 10 7 6 3 17
split_gain=27.1063 21.3967 16.8194 17.9711 9.32306 7.98194 7.03691 6.48936 9.34082 10.0018 6.29828 16.4289 9.34483 6.21661 11.0717 6.12485 3.55257 2.89452 2.83232 2.17238 1.67055 0.182246 0.111273 0.109431
threshold=0.74913160221910957 -1.0151019043898846 -0.03290603426440724 -0.32703126669188537 0.84947496163433878 -0.33860130402672889 -0.14777316367895829 -0.17946005986932126 -0.18190128711015688 -0.6462156899866851 -0.070428029380421586 -0.20201236800805578 -0.13474652714514099 0.96880567500068204 1.2131686016537058 -0.82075667141379116 -0.34679708685298077 -0.27117512337500588 -0.62219520694114105 0.61670421207102011 1.45369263023991 0.89359286164112173 0.75447501440555065 -0.70409193571884765
decision_type=2 2 2 2 2 2 2 2 2 2 2 2 2 2 2 2 2 2 2 2 2 2 2 2
left_child=2 -2 5 15 10 6 -1 -7 17 -10 11 -5 -12 19 -15 -4 -17 -9 -8 21 -16 -3 -23 -18
right_child=1 13 3 4 -6 7 18 8 9 -11 12 -13 -14 14 20 16 23 -19 -20 -21 -22 22 -24 -25
leaf_value=0.023995132521539619 0.0251469121266268 -0.047300194207478691 0.0024722042636643841 -0.023977293945731795 0.03097392968335673 -0.003391240236442176 0.00053716310044994156 0.055796577379677116 0.042875058004989537 0.0068583340925478303 0.031095153458107386 0.027391826416739901 -0.007661580261516786 0.020323128517222133 -0.018732380655389798 -0.015400607590315153 -0.045429417509643584 0.032171751163877112 -0.028623626611727893 -0.02287159661014659 -0.043721126546380197 -0.036608492997626432 -0.042613896803725154 -0.039325250952111118
leaf_weight=18.646527737379074 22.886842042207718 14.748427972197531 15.966054648160933 21.476161599159241 29.882917836308479 22.410366281867027 16.2959094196558 22.900013476610184 26.204938128590584 72.897743597626686 17.257734969258308 56.547827914357185 157.46089878678322 15.802621841430662 12.247986987233164 18.02457100152969 20.133927658200264 29.885136038064957 17.027795284986496 19.25413504242897 14.733986437320707 11.366057664155958 24.001563727855682 11.556583106517797
leaf_count=49 67 48 50 67 76 66 49 51 66 188 45 157 475 51 53 65 85 70 57 72 62 58 114 49
internal_value=0.0012461 -0.0189112 0.00598365 -0.000911335 0.00456375 0.0165974 -0.000600686 0.0217254 0.0254312 0.016382 0.00144115 0.0132524 -0.00383341 -0.0279019 -0.0129126 -0.0244706 -0.0331233 0.042421 -0.0143635 -0.0371467 -0.0323779 -0.042631 -0.0406839 -0.0432034
internal_weight=709.617 135.042 574.575 348.307 282.626 226.268 51.9702 174.298 151.888 99.1027 252.743 78.024 174.719 112.155 42.7846 65.6811 49.7151 52.7851 33.3237 69.3702 26.982 50.116 35.3676 31.6905
internal_count=2190 525 1665 1069 820 596 155 441 375 254 744 224 520 458 166 249 199 121 106 292 115 220 172 134
is_linear=0
shrinkage=0.05


Tree=33
num_leaves=21
num_cat=0
split_feature=16 6 4 8 2 11 10 0 11 13 10 1 6 10 4 12 4 7 2 11
split_gain=35.6827 11.314 12.5207 13.1612 8.65162 9.37287 8.31356 9.63926 9.20076 9.1925 8.2057 7.0406 5.78476 4.79528 4.77568 4.41064 3.34575 2.69395 0.0268297 0.0122826
threshold=-0.019131949433253245 1.3890900222065208 0.7433788971594496 -0.050161084820508441 -0.75327815567972822 -0.31912907157523973 -0.58456948206997428 -0.085473526402759445 -0.32705541631006568 0.03648261409965791 -0.14046598107964317 0.89074573455372363 0.37332038905083875 -0.25779341269572315 0.34688941730901052 -0.40447293467182038 0.98647251111949341 -0.66722108225635812 0.88422499144422073 -0.32620425401469666
decision_type=2 2 2 2 2 2 2 2 2 2 2 2 2 2 2 2 2 2 2 2
left_child=1 2 3 4 -1 -6 -2 8 -8 15 -9 13 -11 -5 17 -10 18 -12 19 -4
right_child=6 -3 16 11 5 -7 7 10 9 12 14 -13 -14 -15 -16 -17 -18 -19 -20 -21
leaf_value=-0.031134585402933942 0.042836251742567596 0.02766693407019858 -0.041643861499917001 -0.037760797062411589 -0.0063042479417336388 0.018238290760640537 0.032818960761235437 0.0029941214521265781 -0.038389917153079732 -0.0026914836442741411 0.034979747949800293 -0.043760196266882927 0.023981901748827288 -0.011114457050594079 0.049618041399277078 -0.006220847140309395 -0.018680632839006957 0.0092038466425379585 -0.045919882838952347 -0.043917767450007708
leaf_weight=18.912553742527962 20.822036445140839 18.49214880168438 10.682577744126318 19.383480116724968 87.101905152201653 70.300209984183311 21.089091464877129 36.82588766515255 20.754387572407722 60.6722472012043 19.93304967880249 23.910779803991318 30.567862957715988 130.94428114593029 25.108607113361359 21.897299915552139 21.346381574869156 20.62615555524826 10.674956008791922 13.372820243239405
leaf_count=66 50 53 62 87 276 194 56 92 74 173 50 87 87 423 59 62 81 50 49 59
internal_value=-0.00147123 -0.0105827 -0.0123222 -0.00881305 0.000817908 0.00465714 0.0124473 0.00998978 0.00212233 -0.00271265 0.0218862 -0.0185588 0.00624481 -0.0145503 0.0324806 -0.0218744 -0.0342589 0.0218716 -0.0438337 -0.042908
internal_weight=703.419 425.122 406.63 350.553 176.315 157.402 278.297 257.475 154.981 133.892 102.494 174.239 91.2401 150.328 65.6678 42.6517 56.0767 40.5592 34.7304 24.0554
internal_count=2190 1437 1384 1133 536 470 753 703 452 396 251 597 260 510 159 136 251 100 170 121
is_linear=0
shrinkage=0.05


Tree=34
num_leaves=24
num_cat=0
split_feature=0 9 4 17 11 10 5 7 4 4 6 16 4 12 9 0 13 7 5 9 16 9 12
split_gain=57.6857 25.9728 22.6637 13.579 8.11522 8.20841 7.45499 9.70827 7.27403 13.8833 11.7881 6.50802 7.83814 5.58058 6.30415 4.89701 4.74497 2.10629 4.2955 2.64837 2.15152 2.35402 0.687287
threshold=-0.29283396538057777 -0.83621981004624779 0.39620552010454407 -0.55981963283102243 -0.32680593957079401 0.017655064456107403 0.27808029185072164 0.98619711816773814 0.96880567500068204 1.0366965247986173 1.3239588140529566 1.0000000180025095e-35 -0.36986307196214924 -0.41458167481921743 0.041266907866078908 -0.34743138761746906 0.42225750695703551 -0.71217746099912316 -0.54553446655090032 -0.011788696661784647 0.039409537847166554 -0.060101944487738444 -0.094655279997603786
decision_type=2 2 2 2 2 2 2 2 2 2 2 2 2 2 2 2 2 2 2 2 2 2 2
left_child=2 -2 3 4 11 -6 -4 -8 10 -10 -9 12 -1 -5 -15 -7 17 20 -19 -20 21 -3 -18
right_child=1 16 6 13 5 15 7 8 9 -11 -12 -13 -14 14 -16 -17 22 18 19 -21 -22 -23 -24
leaf_value=0.030751566052581593 0.048636695014914667 -0.019314148930978863 0.056629145795323459 -0.037016282086956252 0.050518115323080884 0.027772573208100327 -0.0083562242556750408 0.05277006098595366 -0.016333218314345463 0.035576730545649325 0.0014868106490777352 -0.019209553176277004 -4.7383319785250265e-05 -0.021598129379799727 0.018376593009443148 -0.008862027994179799 -0.044194373978495953 0.0062676314825814332 -0.025579203982748613 -0.010804174354120902 -0.0088307540951726802 -0.037145134212084617 -0.03017886533762237
leaf_weight=28.73460665345192 14.369530245661734 40.377102434635162 19.078886687755585 22.3130152374506 20.859222680330276 20.245718002319336 20.614379033446312 47.199252590537071 20.987649291753769 33.344602227210999 14.693974107503889 26.465631097555161 73.491761818528175 25.28085258603096 16.171672284603119 16.602338775992393 18.322611778974533 22.124440968036652 56.726574718952179 65.176023706793785 19.491469815373421 34.177320271730423 16.737197756767273
leaf_count=95 53 128 71 65 73 66 60 173 57 111 44 78 218 74 55 49 56 74 170 201 62 102 55
internal_value=0.000253901 -0.0168833 0.0123869 0.00306154 0.00987489 0.0254546 0.0273489 0.0232666 0.0288753 0.0155248 0.040595 0.00288875 0.00860983 -0.0168552 -0.00600299 0.0112664 -0.0203304 -0.0178014 -0.014001 -0.0176796 -0.0236214 -0.0274882 -0.0375035
internal_weight=693.586 287.502 406.084 250.165 186.399 57.7073 155.919 136.84 116.225 54.3323 61.8932 128.692 102.226 63.7655 41.4525 36.8481 273.133 238.073 144.027 121.903 94.0459 74.5544 35.0598
internal_count=2190 901 1289 773 579 188 516 445 385 168 217 391 313 194 129 115 848 737 445 371 292 230 111
is_linear=0
shrinkage=0.05


Tree=35
num_leaves=23
num_cat=0
split_feature=6 13 13 11 12 0 14 1 11 7 6 15 16 14 17 16 17 11 7 12 9 9
split_gain=24.873 19.9124 15.1345 16.7295 8.64865 7.22479 6.49102 6.34179 9.64734 9.8702 7.07765 5.9151 5.7709 15.1145 9.13168 5.59794 5.88853 3.90336 2.68428 2.18056 1.27223 0.859909
threshold=0.74913160221910957 -1.0151019043898846 -0.03290603426440724 -0.32703126669188537 0.84947496163433878 -0.33860130402672889 -0.14777316367895829 -0.52388409674195902 -0.32253642127034227 -0.81725683233056412 -0.60718467896634609 -0.026894339629993796 -0.070428029380421586 -0.20201236800805578 -0.6625512686287347 -0.7204085755635371 -0.82707253578543094 -0.32652146264375376 -0.62219520694114105 -0.33587492874897001 -0.26585520878042235 0.61956650929293899
decision_type=2 2 2 2 2 2 2 2 2 2 2 2 2 2 2 2 2 2 2 2 2 2
left_child=2 -2 5 11 12 6 -1 8 -7 -10 -9 19 13 -5 -14 -3 -17 -12 -8 -4 -18 -22
right_child=1 15 3 4 -6 7 18 10 9 -11 17 -13 14 -15 -16 16 20 -19 -20 -21 21 -23
leaf_value=0.022894179207056796 0.023953452499432037 0.0030250225820276553 -0.02261359658521913 -0.023309549146824694 0.029754131301035314 0.037357247939653657 0.0005553910398643292 0.048497199981767027 0.023178654288480968 -0.018831105964243852 0.0043393276061964798 -0.0021827015531899639 -0.023785480540980074 0.026075291406301427 0.0028409132637415221 0.00085641616537728753 -0.023206546254001405 0.029860111667590818 -0.027907993113058579 -0.045061349138845838 -0.04333924346488105 -0.031707390487129256
leaf_weight=18.75819493830204 23.052045345306396 13.467760816216467 20.650140315294266 21.267740666866302 30.085858196020126 23.395039960741997 16.295766577124596 32.100840985774994 24.526402443647385 32.52164913713932 25.058113560080528 21.267725721001625 42.627893641591072 57.064634382724762 131.64186756312847 12.340026080608366 15.508255466818808 37.262970253825188 16.845876798033714 22.72239163517952 43.27521938085556 25.10732626914978
leaf_count=49 67 50 85 67 76 59 49 73 58 92 68 69 152 157 368 51 72 91 57 95 187 98
internal_value=0.00121497 -0.01829 0.00572521 -0.000834439 0.00441289 0.0157724 -0.000609455 0.0206345 0.0103184 -0.000770046 0.0294234 -0.0237823 0.00139466 0.012667 -0.00367213 -0.0271671 -0.0313925 0.0195987 -0.0139125 -0.0343737 -0.0361362 -0.0390685
internal_weight=706.844 132.751 574.093 347.328 282.688 226.765 51.8998 174.865 80.4431 57.0481 94.4219 64.6403 252.602 78.3324 174.27 109.699 96.2308 62.3211 33.1416 43.3725 83.8908 68.3825
internal_count=2190 525 1665 1069 820 596 155 441 209 150 232 249 744 224 520 458 408 159 106 180 357 285
is_linear=0
shrinkage=0.05


Tree=36
num_leaves=26
num_cat=0
split_feature=16 9 11 12 10 17 10 12 14 10 8 14 10 10 9 11 13 8 13 17 3 13 12 13 4
split_gain=32.2879 10.9667 14.8265 12.4306 8.16098 8.93786 7.54365 9.20293 11.576 6.06489 5.57702 5.5598 9.1942 6.88829 5.26622 6.98474 6.50209 5.4711 4.27175 3.41523 3.35764 2.55274 1.14611 0.508005 0.0293095
threshold=-0.019131949433253245 -0.093764648314787036 -0.31912907157523973 -0.34008101375589678 0.27718492572338599 -0.80552934448971658 -0.58456948206997428 -0.41272149409420655 0.24223221393476155 -0.15094764247219242 -0.034573999912659047 0.09077396763741101 0.092595569486955562 -0.089667104475475143 0.00039791832970700007 -0.32695783682618057 0.14827993275951182 -0.038642166811202687 -0.16405575473570663 -0.176856647166825 0.37664523755109064 0.054733077638424756 -0.41014647014991545 0.023908377793186952 0.31782839808878932
decision_type=2 2 2 2 2 2 2 2 2 2 2 2 2 2 2 2 2 2 2 2 2 2 2 2 2
left_child=1 2 22 14 5 -5 -2 8 -8 -4 -7 21 13 -13 17 -16 -17 -3 -11 -10 -14 -9 -1 24 -24
right_child=6 3 9 4 -6 10 7 11 19 18 -12 12 20 -15 15 16 -18 -19 -20 -21 -22 -23 23 -25 -26
leaf_value=-0.023600219655558904 0.040673405037706833 0.022946808908853564 -0.027453907760101138 -0.037146965733030966 0.028856763405354036 0.016602639563350216 -0.038195040774034988 0.017214081845253006 -0.0085535543386155311 -0.014520197532698063 -0.0077333156375155518 0.012966815090916321 0.034572064320856542 -0.016120778793978306 0.0017047988454233613 -0.03468056376827517 0.0054375167770485573 -0.015852386401214787 0.015767943471679476 0.020824538482662972 0.011410033272609005 0.039330546838968333 -0.043803305642093622 -0.030616150940360395 -0.041336294182986989
leaf_weight=12.220325350761412 20.95154196023941 16.251765564084053 21.474220380187035 14.273397609591482 30.878994196653366 50.679529175162315 20.436732813715935 25.126058787107468 17.540112048387527 18.678738549351692 43.965277925133705 41.117122247815132 34.279636099934578 40.304363220930099 25.793391689658165 64.398006975650787 11.978426784276961 20.606394082307816 30.898061588406563 22.689683377742767 28.785540968179703 27.140186205506325 25.046342208981514 10.790390178561209 23.183326110243797
leaf_count=58 50 48 68 60 84 140 64 64 60 63 127 104 85 118 86 249 35 67 83 63 77 68 106 36 127
internal_value=-0.00139027 -0.0101242 -0.0214191 -0.00436014 0.00616801 -0.000264389 0.0118224 0.00947416 -0.00755128 -0.00525779 0.00529788 0.0147238 0.00966859 -0.0014318 -0.0149465 -0.0207914 -0.0283887 0.00125523 0.00435647 0.00801575 0.024 0.0286985 -0.0375375 -0.0404233 -0.0426174
internal_weight=699.488 421.117 142.291 278.825 139.797 108.918 278.371 257.419 60.6665 71.051 94.6448 196.753 144.487 81.4215 139.028 102.17 76.3764 36.8582 49.5768 40.2298 63.0652 52.2662 71.2404 59.0201 48.2297
internal_count=2190 1437 541 896 411 327 753 703 187 214 267 516 384 222 485 370 284 115 146 123 162 132 327 269 233
is_linear=0
shrinkage=0.05


Tree=37
num_leaves=23
num_cat=0
split_feature=0 9 4 17 11 8 5 5 2 4 4 8 12 9 17 13 8 10 10 11 12 8
split_gain=52.6485 24.5788 20.8078 12.4149 7.59647 7.15831 7.08221 9.21047 9.57469 7.29572 5.69681 8.45484 5.37707 5.8451 5.27952 4.62935 2.15724 3.04714 3.4334 1.28967 0.693327 0.54932
threshold=-0.29283396538057777 -0.874609655857021 0.39620552010454407 -0.55981963283102243 -0.32656819449890356 0.025885655397513953 0.27808029185072164 0.79258635826483037 0.93456184093495442 1.0366965247986173 -0.37189284006383366 -0.010670134611366148 -0.41458167481921743 0.041266907866078908 -0.68891796174402697 0.42225750695703551 -0.23459068483767267 0.13889643823294917 -0.089667104475475143 -0.20817476098730955 -0.094655279997603786 -0.0029431065084452499
decision_type=2 2 2 2 2 2 2 2 2 2 2 2 2 2 2 2 2 2 2 2 2 2
left_child=2 -2 3 4 10 -6 -4 -8 21 -10 11 -1 -5 -14 -12 16 -3 18 -18 -19 -17 -9
right_child=1 15 6 12 5 -7 7 8 9 -11 14 -13 13 -15 -16 20 17 19 -20 -21 -22 -23
leaf_value=0.050345201689056367 0.049529348590282934 -0.0031556070288155866 0.054816589152866496 -0.036377936696854844 0.049476969809441197 0.0042892106945844949 -0.0015619524084217757 0.045496175951638976 0.0075957895908850175 0.039986435023397424 0.0036651870082403263 0.0028235360140390054 -0.020914391024823245 0.017573012611802438 -0.024800524665070892 -0.043658199090405587 -0.021832682367357675 -0.038317680098610356 -0.0073905722331685554 -0.020592779844392756 -0.029386368276580352 0.058999251683628497
leaf_weight=14.949559986591337 13.491981938481329 24.714617505669594 18.910455465316772 21.865660935640335 20.374136060476303 15.379966303706167 31.46361668407917 13.707681104540827 46.807578817009926 27.656756669282913 91.213624104857445 25.031699940562248 24.973892837762833 16.305971577763557 19.830071210861206 17.813536763191223 98.063109174370766 24.244346752762794 70.912011951208115 17.794834971427917 16.293369755148888 16.717331230640411
leaf_count=52 51 78 71 65 71 47 93 50 143 94 276 77 74 55 56 56 309 69 227 56 55 65
internal_value=0.000204452 -0.01633 0.0117662 0.00283549 0.00931504 0.030039 0.0261417 0.0221649 0.0292822 0.019626 0.00440878 0.0205926 -0.0163305 -0.00571147 -0.00141819 -0.019623 -0.0171319 -0.0187688 -0.0157719 -0.0308149 -0.0368403 0.0529156
